~o
<STREAMINFO> 1 39
<VECSIZE> 39<NULLD><MFCC_D_A><DIAGC>
~h "hmm_word_1"
<BEGINHMM>
<NUMSTATES> 7
<STATE> 2
<NUMMIXES> 2
<MIXTURE> 1 5.000000e-01
<MEAN> 39
 6.021397e+00 5.419676e+00 -2.300027e-01 -6.019733e+00 -1.865812e+01 -4.932601e+00 -5.437972e+00 -4.241337e+00 -5.746282e+00 -7.647575e+00 -4.162097e+00 -4.778585e+00 -7.527998e+00 7.381262e-01 -6.246194e-01 -4.263254e-01 -1.327685e+00 -1.429065e+00 5.171599e-01 2.380509e-01 4.011726e-01 6.792571e-01 -1.797430e-01 -3.574975e-01 -8.088737e-02 -2.745626e-01 -2.854710e-01 -3.797993e-01 -2.001981e-01 -2.279005e-02 3.125314e-01 5.097252e-01 9.101424e-02 1.384344e-02 1.263539e-02 -5.017420e-02 -3.628540e-02 1.336204e-01 1.452200e-01
<VARIANCE> 39
 1.477596e+01 3.836324e+01 3.325057e+01 5.397540e+01 6.223640e+01 3.904625e+01 5.642559e+01 5.276871e+01 8.779906e+01 4.776671e+01 4.703942e+01 6.989194e+01 2.764342e+01 2.647696e+00 2.885655e+00 2.047636e+00 2.875019e+00 4.395710e+00 5.008999e+00 3.021259e+00 3.054656e+00 3.536468e+00 3.142201e+00 2.932153e+00 2.419304e+00 1.999421e+00 3.054200e-01 3.795530e-01 2.849340e-01 4.630829e-01 7.559738e-01 5.723050e-01 4.821194e-01 5.743917e-01 6.726627e-01 5.394812e-01 5.101697e-01 4.151802e-01 3.436741e-01
<GCONST> 1.253079e+02
<MIXTURE> 2 5.000000e-01
<MEAN> 39
 6.021397e+00 5.419676e+00 -2.300027e-01 -6.019733e+00 -1.865812e+01 -4.932601e+00 -5.437972e+00 -4.241337e+00 -5.746282e+00 -7.647575e+00 -4.162097e+00 -4.778585e+00 -7.527998e+00 7.381262e-01 -6.246194e-01 -4.263254e-01 -1.327685e+00 -1.429065e+00 5.171599e-01 2.380509e-01 4.011726e-01 6.792571e-01 -1.797430e-01 -3.574975e-01 -8.088737e-02 -2.745626e-01 -2.854710e-01 -3.797993e-01 -2.001981e-01 -2.279005e-02 3.125314e-01 5.097252e-01 9.101424e-02 1.384344e-02 1.263539e-02 -5.017420e-02 -3.628540e-02 1.336204e-01 1.452200e-01
<VARIANCE> 39
 1.477596e+01 3.836324e+01 3.325057e+01 5.397540e+01 6.223640e+01 3.904625e+01 5.642559e+01 5.276871e+01 8.779906e+01 4.776671e+01 4.703942e+01 6.989194e+01 2.764342e+01 2.647696e+00 2.885655e+00 2.047636e+00 2.875019e+00 4.395710e+00 5.008999e+00 3.021259e+00 3.054656e+00 3.536468e+00 3.142201e+00 2.932153e+00 2.419304e+00 1.999421e+00 3.054200e-01 3.795530e-01 2.849340e-01 4.630829e-01 7.559738e-01 5.723050e-01 4.821194e-01 5.743917e-01 6.726627e-01 5.394812e-01 5.101697e-01 4.151802e-01 3.436741e-01
<GCONST> 1.253079e+02
<STATE> 3
<NUMMIXES> 2
<MIXTURE> 1 5.000000e-01
<MEAN> 39
 5.866511e+00 -5.551512e+00 -6.548757e+00 -1.287605e+01 -1.782865e+01 9.949826e+00 -1.871029e+00 -4.627464e+00 -3.390565e+00 -1.028825e+01 -6.878602e+00 -1.201769e+00 -6.384177e+00 -4.386782e-01 -1.639566e+00 -8.372479e-01 4.568307e-01 1.952425e+00 1.757287e+00 -6.621335e-01 -1.513359e+00 -4.717217e-01 3.639767e-01 3.318035e-01 3.168847e-01 -2.800435e-01 -6.743038e-02 1.434293e-01 2.301955e-01 5.389262e-01 1.572648e-01 -6.742522e-01 -4.795748e-01 -1.738283e-01 1.948301e-01 4.675677e-01 1.755225e-01 -3.010213e-01 -2.293796e-01
<VARIANCE> 39
 8.981501e+00 3.065701e+01 3.144554e+01 5.338800e+01 6.290342e+01 5.696713e+01 8.590020e+01 6.944016e+01 1.014757e+02 7.558321e+01 5.752708e+01 7.134106e+01 4.569456e+01 2.445977e-01 1.190299e+00 8.025829e-01 1.919020e+00 1.596444e+00 3.678600e+00 2.773045e+00 2.275252e+00 2.465755e+00 3.562230e+00 2.335768e+00 2.506117e+00 2.298012e+00 4.135436e-02 1.196811e-01 1.276954e-01 2.289850e-01 4.148787e-01 4.605740e-01 3.225118e-01 5.675964e-01 5.250688e-01 4.110575e-01 4.809555e-01 4.363860e-01 3.189474e-01
<GCONST> 1.138369e+02
<MIXTURE> 2 5.000000e-01
<MEAN> 39
 5.866511e+00 -5.551512e+00 -6.548757e+00 -1.287605e+01 -1.782865e+01 9.949826e+00 -1.871029e+00 -4.627464e+00 -3.390565e+00 -1.028825e+01 -6.878602e+00 -1.201769e+00 -6.384177e+00 -4.386782e-01 -1.639566e+00 -8.372479e-01 4.568307e-01 1.952425e+00 1.757287e+00 -6.621335e-01 -1.513359e+00 -4.717217e-01 3.639767e-01 3.318035e-01 3.168847e-01 -2.800435e-01 -6.743038e-02 1.434293e-01 2.301955e-01 5.389262e-01 1.572648e-01 -6.742522e-01 -4.795748e-01 -1.738283e-01 1.948301e-01 4.675677e-01 1.755225e-01 -3.010213e-01 -2.293796e-01
<VARIANCE> 39
 8.981501e+00 3.065701e+01 3.144554e+01 5.338800e+01 6.290342e+01 5.696713e+01 8.590020e+01 6.944016e+01 1.014757e+02 7.558321e+01 5.752708e+01 7.134106e+01 4.569456e+01 2.445977e-01 1.190299e+00 8.025829e-01 1.919020e+00 1.596444e+00 3.678600e+00 2.773045e+00 2.275252e+00 2.465755e+00 3.562230e+00 2.335768e+00 2.506117e+00 2.298012e+00 4.135436e-02 1.196811e-01 1.276954e-01 2.289850e-01 4.148787e-01 4.605740e-01 3.225118e-01 5.675964e-01 5.250688e-01 4.110575e-01 4.809555e-01 4.363860e-01 3.189474e-01
<GCONST> 1.138369e+02
<STATE> 4
<NUMMIXES> 2
<MIXTURE> 1 5.000000e-01
<MEAN> 39
 1.888005e+00 -1.208490e+01 -7.476985e+00 -4.945479e+00 -1.022414e+01 5.838299e+00 -1.324653e+01 -7.997669e+00 -9.902726e-01 -7.050306e+00 -8.545038e+00 -7.833509e+00 -8.877223e+00 -3.668894e-01 7.116743e-02 1.035298e+00 1.695649e+00 3.559747e-03 -1.979978e+00 -9.302841e-01 8.504426e-01 5.351080e-01 -7.606570e-02 -3.990047e-01 -7.204912e-01 3.965876e-01 1.225823e-01 4.361118e-01 3.576614e-01 -1.335028e-02 -2.253620e-01 -3.052956e-01 3.625780e-01 2.432703e-01 -4.932518e-01 -3.691841e-01 1.241108e-01 1.340507e-01 2.453161e-01
<VARIANCE> 39
 1.278501e+01 2.896907e+01 2.869145e+01 5.520464e+01 4.661784e+01 6.728413e+01 8.044563e+01 6.371650e+01 7.746800e+01 9.858235e+01 7.784743e+01 6.501862e+01 4.031194e+01 4.030402e-01 1.490002e+00 1.320989e+00 1.590542e+00 2.615567e+00 2.156656e+00 2.870270e+00 2.811866e+00 3.664908e+00 3.337101e+00 2.732651e+00 2.611076e+00 2.320417e+00 6.467425e-02 1.463466e-01 1.814482e-01 2.374482e-01 4.401996e-01 4.636889e-01 4.826103e-01 7.211517e-01 7.297998e-01 6.068628e-01 5.158804e-01 4.267292e-01 3.787174e-01
<GCONST> 1.183325e+02
<MIXTURE> 2 5.000000e-01
<MEAN> 39
 1.888005e+00 -1.208490e+01 -7.476985e+00 -4.945479e+00 -1.022414e+01 5.838299e+00 -1.324653e+01 -7.997669e+00 -9.902726e-01 -7.050306e+00 -8.545038e+00 -7.833509e+00 -8.877223e+00 -3.668894e-01 7.116743e-02 1.035298e+00 1.695649e+00 3.559747e-03 -1.979978e+00 -9.302841e-01 8.504426e-01 5.351080e-01 -7.606570e-02 -3.990047e-01 -7.204912e-01 3.965876e-01 1.225823e-01 4.361118e-01 3.576614e-01 -1.335028e-02 -2.253620e-01 -3.052956e-01 3.625780e-01 2.432703e-01 -4.932518e-01 -3.691841e-01 1.241108e-01 1.340507e-01 2.453161e-01
<VARIANCE> 39
 1.278501e+01 2.896907e+01 2.869145e+01 5.520464e+01 4.661784e+01 6.728413e+01 8.044563e+01 6.371650e+01 7.746800e+01 9.858235e+01 7.784743e+01 6.501862e+01 4.031194e+01 4.030402e-01 1.490002e+00 1.320989e+00 1.590542e+00 2.615567e+00 2.156656e+00 2.870270e+00 2.811866e+00 3.664908e+00 3.337101e+00 2.732651e+00 2.611076e+00 2.320417e+00 6.467425e-02 1.463466e-01 1.814482e-01 2.374482e-01 4.401996e-01 4.636889e-01 4.826103e-01 7.211517e-01 7.297998e-01 6.068628e-01 5.158804e-01 4.267292e-01 3.787174e-01
<GCONST> 1.183325e+02
<STATE> 5
<NUMMIXES> 2
<MIXTURE> 1 5.000000e-01
<MEAN> 39
 2.617230e+00 -2.665791e+00 4.010518e+00 4.840328e+00 -1.156717e+01 -8.265634e+00 -9.211654e+00 -5.709683e+00 -1.181775e+01 -9.821032e+00 -5.097708e+00 -8.862139e+00 -4.815001e+00 6.978434e-02 1.424399e+00 9.698339e-01 8.206049e-01 3.308945e-01 -9.433696e-01 9.056911e-01 -2.605081e-01 -1.716485e+00 -2.139069e-01 4.601419e-01 -1.486985e-01 2.372791e-01 -1.427015e-01 -1.104326e-01 -3.010085e-01 -2.023769e-01 1.417734e-01 4.465085e-01 1.275216e-03 -2.742227e-03 3.844704e-01 9.466935e-02 -1.558827e-01 9.090271e-02 -8.866952e-02
<VARIANCE> 39
 8.971881e+00 3.688154e+01 2.978400e+01 5.540039e+01 6.137846e+01 5.641265e+01 6.767911e+01 7.860682e+01 9.958405e+01 6.451141e+01 8.306600e+01 6.321544e+01 4.255538e+01 5.478138e-01 1.613231e+00 2.358336e+00 2.033671e+00 2.431985e+00 3.984105e+00 3.216966e+00 4.132059e+00 5.477250e+00 3.561546e+00 2.845615e+00 2.291311e+00 2.151123e+00 1.100445e-01 2.489312e-01 3.091277e-01 3.563638e-01 4.443838e-01 5.182250e-01 6.108820e-01 7.084525e-01 9.024891e-01 5.463848e-01 4.520313e-01 4.081266e-01 3.591666e-01
<GCONST> 1.230851e+02
<MIXTURE> 2 5.000000e-01
<MEAN> 39
 2.617230e+00 -2.665791e+00 4.010518e+00 4.840328e+00 -1.156717e+01 -8.265634e+00 -9.211654e+00 -5.709683e+00 -1.181775e+01 -9.821032e+00 -5.097708e+00 -8.862139e+00 -4.815001e+00 6.978434e-02 1.424399e+00 9.698339e-01 8.206049e-01 3.308945e-01 -9.433696e-01 9.056911e-01 -2.605081e-01 -1.716485e+00 -2.139069e-01 4.601419e-01 -1.486985e-01 2.372791e-01 -1.427015e-01 -1.104326e-01 -3.010085e-01 -2.023769e-01 1.417734e-01 4.465085e-01 1.275216e-03 -2.742227e-03 3.844704e-01 9.466935e-02 -1.558827e-01 9.090271e-02 -8.866952e-02
<VARIANCE> 39
 8.971881e+00 3.688154e+01 2.978400e+01 5.540039e+01 6.137846e+01 5.641265e+01 6.767911e+01 7.860682e+01 9.958405e+01 6.451141e+01 8.306600e+01 6.321544e+01 4.255538e+01 5.478138e-01 1.613231e+00 2.358336e+00 2.033671e+00 2.431985e+00 3.984105e+00 3.216966e+00 4.132059e+00 5.477250e+00 3.561546e+00 2.845615e+00 2.291311e+00 2.151123e+00 1.100445e-01 2.489312e-01 3.091277e-01 3.563638e-01 4.443838e-01 5.182250e-01 6.108820e-01 7.084525e-01 9.024891e-01 5.463848e-01 4.520313e-01 4.081266e-01 3.591666e-01
<GCONST> 1.230851e+02
<STATE> 6
<NUMMIXES> 2
<MIXTURE> 1 5.000000e-01
<MEAN> 39
 -3.483362e+00 2.323928e+00 4.085460e+00 7.663738e+00 -3.699647e+00 -4.361010e+00 -4.658013e+00 -2.847978e+00 -8.800153e+00 -8.074704e+00 -4.665468e+00 -6.225030e+00 -3.930327e+00 -2.078897e+00 -1.543559e-01 -7.949539e-01 -4.760377e-01 1.055882e+00 1.109607e+00 4.130857e-01 9.101720e-01 1.771023e+00 7.929668e-01 9.486881e-02 9.339516e-01 3.883079e-01 -2.791677e-01 -2.861652e-01 -2.541677e-01 -2.852977e-01 -2.114021e-01 4.159517e-02 -4.794229e-02 6.741977e-02 2.742978e-01 2.747630e-01 1.403391e-01 1.551650e-01 1.106585e-01
<VARIANCE> 39
 4.245520e+01 3.279548e+01 3.372966e+01 4.164860e+01 6.518762e+01 4.899505e+01 4.762977e+01 6.222716e+01 8.034208e+01 5.892326e+01 6.367819e+01 4.283117e+01 3.361404e+01 4.077677e+00 3.567182e+00 2.970863e+00 3.452418e+00 4.836609e+00 3.572714e+00 4.047413e+00 4.368831e+00 4.862378e+00 4.505754e+00 4.596598e+00 3.564550e+00 2.780096e+00 5.905375e-01 5.973961e-01 5.010569e-01 5.311081e-01 7.729547e-01 7.022164e-01 6.390272e-01 7.321836e-01 8.944470e-01 7.268896e-01 6.974972e-01 5.108130e-01 4.660520e-01
<GCONST> 1.337861e+02
<MIXTURE> 2 5.000000e-01
<MEAN> 39
 -3.483362e+00 2.323928e+00 4.085460e+00 7.663738e+00 -3.699647e+00 -4.361010e+00 -4.658013e+00 -2.847978e+00 -8.800153e+00 -8.074704e+00 -4.665468e+00 -6.225030e+00 -3.930327e+00 -2.078897e+00 -1.543559e-01 -7.949539e-01 -4.760377e-01 1.055882e+00 1.109607e+00 4.130857e-01 9.101720e-01 1.771023e+00 7.929668e-01 9.486881e-02 9.339516e-01 3.883079e-01 -2.791677e-01 -2.861652e-01 -2.541677e-01 -2.852977e-01 -2.114021e-01 4.159517e-02 -4.794229e-02 6.741977e-02 2.742978e-01 2.747630e-01 1.403391e-01 1.551650e-01 1.106585e-01
<VARIANCE> 39
 4.245520e+01 3.279548e+01 3.372966e+01 4.164860e+01 6.518762e+01 4.899505e+01 4.762977e+01 6.222716e+01 8.034208e+01 5.892326e+01 6.367819e+01 4.283117e+01 3.361404e+01 4.077677e+00 3.567182e+00 2.970863e+00 3.452418e+00 4.836609e+00 3.572714e+00 4.047413e+00 4.368831e+00 4.862378e+00 4.505754e+00 4.596598e+00 3.564550e+00 2.780096e+00 5.905375e-01 5.973961e-01 5.010569e-01 5.311081e-01 7.729547e-01 7.022164e-01 6.390272e-01 7.321836e-01 8.944470e-01 7.268896e-01 6.974972e-01 5.108130e-01 4.660520e-01
<GCONST> 1.337861e+02
<TRANSP> 7
 0.000000e+00 1.000000e+00 0.000000e+00 0.000000e+00 0.000000e+00 0.000000e+00 0.000000e+00
 0.000000e+00 8.811980e-01 1.188019e-01 0.000000e+00 0.000000e+00 0.000000e+00 0.000000e+00
 0.000000e+00 0.000000e+00 8.280839e-01 1.719161e-01 0.000000e+00 0.000000e+00 0.000000e+00
 0.000000e+00 0.000000e+00 0.000000e+00 8.505352e-01 1.494649e-01 0.000000e+00 0.000000e+00
 0.000000e+00 0.000000e+00 0.000000e+00 0.000000e+00 8.637432e-01 1.362568e-01 0.000000e+00
 0.000000e+00 0.000000e+00 0.000000e+00 0.000000e+00 0.000000e+00 8.088306e-01 1.911694e-01
 0.000000e+00 0.000000e+00 0.000000e+00 0.000000e+00 0.000000e+00 0.000000e+00 0.000000e+00
<ENDHMM>
~h "hmm_word_2"
<BEGINHMM>
<NUMSTATES> 7
<STATE> 2
<NUMMIXES> 2
<MIXTURE> 1 5.000000e-01
<MEAN> 39
 -1.961647e+01 -1.780595e+00 2.857628e+00 -1.315934e+00 -4.157143e+00 -7.104720e-01 -2.333308e+00 1.274399e+00 2.211970e-01 -9.989883e-01 2.231139e+00 1.703996e+00 1.670800e-01 -6.932622e-01 -6.218089e-01 5.267624e-01 -3.162673e-01 -5.662145e-01 -4.999742e-01 1.148312e-01 5.831121e-01 2.721798e-01 -2.314402e-01 2.494971e-01 1.882562e-01 2.050143e-01 6.329176e-01 8.680335e-02 1.515746e-01 4.297476e-01 -1.050472e-01 -2.410944e-01 -2.261170e-01 -1.872368e-01 -2.182397e-01 -2.247334e-01 -2.463472e-01 -2.170103e-01 -1.394148e-01
<VARIANCE> 39
 3.659510e+01 3.785844e+01 2.603344e+01 4.078774e+01 3.120261e+01 2.761249e+01 3.128392e+01 2.797838e+01 2.806581e+01 2.710140e+01 2.145623e+01 1.609456e+01 1.440709e+01 5.077863e+00 4.417228e+00 3.049891e+00 5.376682e+00 3.333064e+00 3.185269e+00 3.677326e+00 3.238762e+00 3.246389e+00 3.369283e+00 2.583088e+00 2.097781e+00 1.697245e+00 1.042348e+00 1.001142e+00 5.598361e-01 8.779172e-01 7.788265e-01 6.051426e-01 8.441479e-01 7.791165e-01 6.358637e-01 6.551822e-01 5.062539e-01 4.552905e-01 3.670244e-01
<GCONST> 1.247324e+02
<MIXTURE> 2 5.000000e-01
<MEAN> 39
 -1.961647e+01 -1.780595e+00 2.857628e+00 -1.315934e+00 -4.157143e+00 -7.104720e-01 -2.333308e+00 1.274399e+00 2.211970e-01 -9.989883e-01 2.231139e+00 1.703996e+00 1.670800e-01 -6.932622e-01 -6.218089e-01 5.267624e-01 -3.162673e-01 -5.662145e-01 -4.999742e-01 1.148312e-01 5.831121e-01 2.721798e-01 -2.314402e-01 2.494971e-01 1.882562e-01 2.050143e-01 6.329176e-01 8.680335e-02 1.515746e-01 4.297476e-01 -1.050472e-01 -2.410944e-01 -2.261170e-01 -1.872368e-01 -2.182397e-01 -2.247334e-01 -2.463472e-01 -2.170103e-01 -1.394148e-01
<VARIANCE> 39
 3.659510e+01 3.785844e+01 2.603344e+01 4.078774e+01 3.120261e+01 2.761249e+01 3.128392e+01 2.797838e+01 2.806581e+01 2.710140e+01 2.145623e+01 1.609456e+01 1.440709e+01 5.077863e+00 4.417228e+00 3.049891e+00 5.376682e+00 3.333064e+00 3.185269e+00 3.677326e+00 3.238762e+00 3.246389e+00 3.369283e+00 2.583088e+00 2.097781e+00 1.697245e+00 1.042348e+00 1.001142e+00 5.598361e-01 8.779172e-01 7.788265e-01 6.051426e-01 8.441479e-01 7.791165e-01 6.358637e-01 6.551822e-01 5.062539e-01 4.552905e-01 3.670244e-01
<GCONST> 1.247324e+02
<STATE> 3
<NUMMIXES> 2
<MIXTURE> 1 5.000000e-01
<MEAN> 39
 -1.357079e+01 -3.650574e+00 8.902514e+00 4.441771e+00 -7.743417e+00 -6.977931e+00 -4.628663e+00 1.586094e+00 -1.440272e+00 -5.611606e+00 -4.682837e-01 -3.876818e-01 -6.080027e-01 5.088281e+00 -1.036385e-01 6.425760e-01 2.285334e+00 -2.319042e+00 -1.649940e+00 -3.044477e+00 -2.474769e+00 -1.730123e+00 -1.692842e+00 -1.651727e+00 -1.302503e+00 -1.169203e+00 2.350402e-01 -2.178078e-01 -3.677422e-01 -4.242185e-01 -7.577418e-01 1.882389e-02 -8.405909e-01 -6.428050e-01 -1.612884e-01 -1.223090e-01 7.108110e-02 -1.810807e-02 -1.716670e-01
<VARIANCE> 39
 6.025549e+01 1.587099e+01 1.797951e+01 4.849724e+01 3.184223e+01 2.744234e+01 4.775438e+01 3.921839e+01 7.060857e+01 3.189079e+01 2.966846e+01 2.331426e+01 1.863384e+01 2.007718e+00 1.940767e+00 2.236309e+00 3.699957e+00 5.842248e+00 3.574560e+00 5.792749e+00 4.676069e+00 5.024105e+00 3.655068e+00 3.309533e+00 4.697679e+00 1.931505e+00 1.218630e+00 3.897308e-01 3.070355e-01 4.549726e-01 5.010353e-01 5.713066e-01 9.834183e-01 1.016442e+00 6.609719e-01 5.474541e-01 6.254759e-01 7.314068e-01 3.897944e-01
<GCONST> 1.262216e+02
<MIXTURE> 2 5.000000e-01
<MEAN> 39
 -1.357079e+01 -3.650574e+00 8.902514e+00 4.441771e+00 -7.743417e+00 -6.977931e+00 -4.628663e+00 1.586094e+00 -1.440272e+00 -5.611606e+00 -4.682837e-01 -3.876818e-01 -6.080027e-01 5.088281e+00 -1.036385e-01 6.425760e-01 2.285334e+00 -2.319042e+00 -1.649940e+00 -3.044477e+00 -2.474769e+00 -1.730123e+00 -1.692842e+00 -1.651727e+00 -1.302503e+00 -1.169203e+00 2.350402e-01 -2.178078e-01 -3.677422e-01 -4.242185e-01 -7.577418e-01 1.882389e-02 -8.405909e-01 -6.428050e-01 -1.612884e-01 -1.223090e-01 7.108110e-02 -1.810807e-02 -1.716670e-01
<VARIANCE> 39
 6.025549e+01 1.587099e+01 1.797951e+01 4.849724e+01 3.184223e+01 2.744234e+01 4.775438e+01 3.921839e+01 7.060857e+01 3.189079e+01 2.966846e+01 2.331426e+01 1.863384e+01 2.007718e+00 1.940767e+00 2.236309e+00 3.699957e+00 5.842248e+00 3.574560e+00 5.792749e+00 4.676069e+00 5.024105e+00 3.655068e+00 3.309533e+00 4.697679e+00 1.931505e+00 1.218630e+00 3.897308e-01 3.070355e-01 4.549726e-01 5.010353e-01 5.713066e-01 9.834183e-01 1.016442e+00 6.609719e-01 5.474541e-01 6.254759e-01 7.314068e-01 3.897944e-01
<GCONST> 1.262216e+02
<STATE> 4
<NUMMIXES> 2
<MIXTURE> 1 5.000000e-01
<MEAN> 39
 -1.631194e+00 -6.678998e+00 8.628444e+00 6.159863e+00 -1.999357e+01 -1.169422e+01 -1.718784e+01 -6.213942e+00 -6.875060e+00 -1.041626e+01 -2.890397e+00 -4.090101e+00 -3.921438e+00 1.560336e+00 -1.154326e+00 -2.171953e-01 1.608707e-01 -2.119450e+00 -6.107694e-01 -2.461310e+00 -1.149067e+00 -2.716705e-01 -6.745256e-01 7.360476e-02 -3.502946e-01 -4.283867e-01 -1.183811e+00 1.478023e-01 -1.357412e-01 -3.883350e-01 9.499469e-01 4.981256e-01 9.337614e-01 6.429470e-01 4.410989e-01 4.447545e-01 3.895433e-01 3.372458e-01 2.744187e-01
<VARIANCE> 39
 1.456229e+01 2.685537e+01 2.130201e+01 8.654845e+01 5.727406e+01 4.371273e+01 4.357202e+01 6.473992e+01 1.404283e+02 5.146549e+01 4.857495e+01 7.647399e+01 2.273156e+01 3.010176e+00 1.718186e+00 1.482692e+00 2.149498e+00 4.207214e+00 2.915975e+00 5.468750e+00 5.896517e+00 3.465805e+00 3.008570e+00 3.092424e+00 4.108253e+00 1.913010e+00 2.840736e-01 3.483878e-01 2.557635e-01 4.357319e-01 4.423804e-01 4.285266e-01 5.613933e-01 5.816269e-01 6.340441e-01 4.624874e-01 5.534085e-01 5.353499e-01 2.807676e-01
<GCONST> 1.244802e+02
<MIXTURE> 2 5.000000e-01
<MEAN> 39
 -1.631194e+00 -6.678998e+00 8.628444e+00 6.159863e+00 -1.999357e+01 -1.169422e+01 -1.718784e+01 -6.213942e+00 -6.875060e+00 -1.041626e+01 -2.890397e+00 -4.090101e+00 -3.921438e+00 1.560336e+00 -1.154326e+00 -2.171953e-01 1.608707e-01 -2.119450e+00 -6.107694e-01 -2.461310e+00 -1.149067e+00 -2.716705e-01 -6.745256e-01 7.360476e-02 -3.502946e-01 -4.283867e-01 -1.183811e+00 1.478023e-01 -1.357412e-01 -3.883350e-01 9.499469e-01 4.981256e-01 9.337614e-01 6.429470e-01 4.410989e-01 4.447545e-01 3.895433e-01 3.372458e-01 2.744187e-01
<VARIANCE> 39
 1.456229e+01 2.685537e+01 2.130201e+01 8.654845e+01 5.727406e+01 4.371273e+01 4.357202e+01 6.473992e+01 1.404283e+02 5.146549e+01 4.857495e+01 7.647399e+01 2.273156e+01 3.010176e+00 1.718186e+00 1.482692e+00 2.149498e+00 4.207214e+00 2.915975e+00 5.468750e+00 5.896517e+00 3.465805e+00 3.008570e+00 3.092424e+00 4.108253e+00 1.913010e+00 2.840736e-01 3.483878e-01 2.557635e-01 4.357319e-01 4.423804e-01 4.285266e-01 5.613933e-01 5.816269e-01 6.340441e-01 4.624874e-01 5.534085e-01 5.353499e-01 2.807676e-01
<GCONST> 1.244802e+02
<STATE> 5
<NUMMIXES> 2
<MIXTURE> 1 5.000000e-01
<MEAN> 39
 -4.685866e-01 -6.645623e+00 7.367685e+00 6.179383e+00 -1.805873e+01 -1.033881e+01 -1.936000e+01 -6.963223e+00 -6.157436e+00 -9.752586e+00 -1.714722e+00 -3.483210e+00 -4.099393e+00 2.520705e-01 4.464581e-01 -3.890018e-01 -2.652596e-02 5.629829e-01 5.271744e-01 -1.997747e-01 -3.285610e-01 -1.860670e-01 1.020047e-01 6.482891e-02 -1.446226e-01 -1.433825e-01 -2.812451e-02 1.672464e-01 -4.651900e-02 -5.742506e-02 1.590006e-01 8.547199e-02 1.629735e-01 -1.916580e-05 -7.486123e-02 6.532806e-02 -1.508616e-02 -1.657977e-02 -1.410704e-03
<VARIANCE> 39
 1.694513e+01 2.814510e+01 2.737036e+01 7.839513e+01 6.569242e+01 5.420290e+01 5.501295e+01 1.025368e+02 1.277044e+02 5.409561e+01 5.775041e+01 9.004205e+01 3.367820e+01 2.186543e-01 5.484688e-01 7.020218e-01 8.258221e-01 9.331444e-01 1.192421e+00 1.256376e+00 1.344142e+00 1.481853e+00 1.352399e+00 1.324602e+00 1.003857e+00 9.931192e-01 5.351527e-02 9.706014e-02 9.312440e-02 1.240441e-01 1.818220e-01 1.833311e-01 2.257710e-01 2.589041e-01 2.190493e-01 2.126174e-01 2.125421e-01 1.823367e-01 1.638469e-01
<GCONST> 9.809505e+01
<MIXTURE> 2 5.000000e-01
<MEAN> 39
 -4.685866e-01 -6.645623e+00 7.367685e+00 6.179383e+00 -1.805873e+01 -1.033881e+01 -1.936000e+01 -6.963223e+00 -6.157436e+00 -9.752586e+00 -1.714722e+00 -3.483210e+00 -4.099393e+00 2.520705e-01 4.464581e-01 -3.890018e-01 -2.652596e-02 5.629829e-01 5.271744e-01 -1.997747e-01 -3.285610e-01 -1.860670e-01 1.020047e-01 6.482891e-02 -1.446226e-01 -1.433825e-01 -2.812451e-02 1.672464e-01 -4.651900e-02 -5.742506e-02 1.590006e-01 8.547199e-02 1.629735e-01 -1.916580e-05 -7.486123e-02 6.532806e-02 -1.508616e-02 -1.657977e-02 -1.410704e-03
<VARIANCE> 39
 1.694513e+01 2.814510e+01 2.737036e+01 7.839513e+01 6.569242e+01 5.420290e+01 5.501295e+01 1.025368e+02 1.277044e+02 5.409561e+01 5.775041e+01 9.004205e+01 3.367820e+01 2.186543e-01 5.484688e-01 7.020218e-01 8.258221e-01 9.331444e-01 1.192421e+00 1.256376e+00 1.344142e+00 1.481853e+00 1.352399e+00 1.324602e+00 1.003857e+00 9.931192e-01 5.351527e-02 9.706014e-02 9.312440e-02 1.240441e-01 1.818220e-01 1.833311e-01 2.257710e-01 2.589041e-01 2.190493e-01 2.126174e-01 2.125421e-01 1.823367e-01 1.638469e-01
<GCONST> 9.809505e+01
<STATE> 6
<NUMMIXES> 2
<MIXTURE> 1 5.000000e-01
<MEAN> 39
 -4.980565e-01 1.545119e+00 1.419854e+00 3.751928e+00 -8.561512e+00 -2.364542e+00 -1.155639e+01 -8.706840e+00 -9.184692e+00 -7.971051e+00 -1.678177e+00 -3.745202e+00 -4.653853e+00 -1.037966e+00 6.412935e-01 -4.605164e-01 -3.491194e-01 1.346590e+00 5.550265e-01 1.732090e+00 7.777910e-01 2.015923e-01 5.829483e-01 7.234856e-02 2.800916e-01 3.165758e-01 -2.914914e-01 -1.658657e-01 -2.243464e-02 -2.536562e-02 -4.644507e-02 -4.818267e-02 1.033219e-01 2.612582e-01 2.788399e-01 1.139214e-01 5.636794e-02 8.370681e-02 8.756772e-02
<VARIANCE> 39
 3.740025e+01 4.050985e+01 4.483641e+01 7.108905e+01 7.967162e+01 7.459210e+01 1.328845e+02 8.134362e+01 8.317016e+01 6.053760e+01 6.520576e+01 9.308095e+01 3.644026e+01 3.314028e+00 3.669096e+00 2.238498e+00 3.237970e+00 4.425215e+00 4.015502e+00 4.983426e+00 5.427359e+00 5.444128e+00 4.713280e+00 4.214921e+00 4.067804e+00 2.709159e+00 3.216795e-01 5.622867e-01 3.673352e-01 4.842350e-01 6.946472e-01 6.571575e-01 8.424955e-01 7.498478e-01 7.055787e-01 7.038631e-01 6.869041e-01 5.869181e-01 4.580559e-01
<GCONST> 1.365444e+02
<MIXTURE> 2 5.000000e-01
<MEAN> 39
 -4.980565e-01 1.545119e+00 1.419854e+00 3.751928e+00 -8.561512e+00 -2.364542e+00 -1.155639e+01 -8.706840e+00 -9.184692e+00 -7.971051e+00 -1.678177e+00 -3.745202e+00 -4.653853e+00 -1.037966e+00 6.412935e-01 -4.605164e-01 -3.491194e-01 1.346590e+00 5.550265e-01 1.732090e+00 7.777910e-01 2.015923e-01 5.829483e-01 7.234856e-02 2.800916e-01 3.165758e-01 -2.914914e-01 -1.658657e-01 -2.243464e-02 -2.536562e-02 -4.644507e-02 -4.818267e-02 1.033219e-01 2.612582e-01 2.788399e-01 1.139214e-01 5.636794e-02 8.370681e-02 8.756772e-02
<VARIANCE> 39
 3.740025e+01 4.050985e+01 4.483641e+01 7.108905e+01 7.967162e+01 7.459210e+01 1.328845e+02 8.134362e+01 8.317016e+01 6.053760e+01 6.520576e+01 9.308095e+01 3.644026e+01 3.314028e+00 3.669096e+00 2.238498e+00 3.237970e+00 4.425215e+00 4.015502e+00 4.983426e+00 5.427359e+00 5.444128e+00 4.713280e+00 4.214921e+00 4.067804e+00 2.709159e+00 3.216795e-01 5.622867e-01 3.673352e-01 4.842350e-01 6.946472e-01 6.571575e-01 8.424955e-01 7.498478e-01 7.055787e-01 7.038631e-01 6.869041e-01 5.869181e-01 4.580559e-01
<GCONST> 1.365444e+02
<TRANSP> 7
 0.000000e+00 1.000000e+00 0.000000e+00 0.000000e+00 0.000000e+00 0.000000e+00 0.000000e+00
 0.000000e+00 8.818236e-01 1.181765e-01 0.000000e+00 0.000000e+00 0.000000e+00 0.000000e+00
 0.000000e+00 0.000000e+00 6.458895e-01 3.541105e-01 0.000000e+00 0.000000e+00 0.000000e+00
 0.000000e+00 0.000000e+00 0.000000e+00 6.623588e-01 3.376412e-01 0.000000e+00 0.000000e+00
 0.000000e+00 0.000000e+00 0.000000e+00 0.000000e+00 8.882577e-01 1.117423e-01 0.000000e+00
 0.000000e+00 0.000000e+00 0.000000e+00 0.000000e+00 0.000000e+00 8.764614e-01 1.235386e-01
 0.000000e+00 0.000000e+00 0.000000e+00 0.000000e+00 0.000000e+00 0.000000e+00 0.000000e+00
<ENDHMM>
~h "hmm_word_3"
<BEGINHMM>
<NUMSTATES> 7
<STATE> 2
<NUMMIXES> 2
<MIXTURE> 1 5.000000e-01
<MEAN> 39
 -1.509642e+01 -1.683598e+00 2.790765e-01 3.999661e+00 -3.406960e+00 -1.948009e+00 -1.458459e+00 3.544194e-01 -1.106755e-01 3.715516e-02 3.792410e-01 6.974235e-01 -7.966076e-01 1.263206e+00 -5.845214e-01 -9.223510e-02 1.751125e-01 -2.886854e-01 -3.060022e-01 -1.005016e+00 -4.313886e-01 -1.112862e-01 -5.366392e-02 -1.279676e-01 -1.116264e-01 -1.882022e-01 6.745849e-01 1.658634e-02 -1.877150e-01 -1.082226e-02 -5.485230e-02 -7.044174e-02 -6.057881e-01 -3.843602e-01 -2.154672e-01 -1.845659e-01 -1.342725e-01 -1.322906e-01 -1.339862e-01
<VARIANCE> 39
 4.367319e+01 3.474522e+01 3.745825e+01 3.903948e+01 3.237040e+01 3.039444e+01 3.439419e+01 3.202034e+01 2.586192e+01 2.418357e+01 2.147346e+01 1.916238e+01 1.520777e+01 9.141033e+00 3.288292e+00 5.772005e+00 5.572128e+00 4.030137e+00 4.513387e+00 7.862048e+00 6.085135e+00 4.121480e+00 3.612565e+00 3.072418e+00 2.986380e+00 2.367564e+00 6.335927e-01 6.836267e-01 1.316622e+00 1.245917e+00 8.721097e-01 8.448767e-01 1.055398e+00 1.052399e+00 7.416905e-01 6.777231e-01 5.816412e-01 5.572652e-01 4.454691e-01
<GCONST> 1.316220e+02
<MIXTURE> 2 5.000000e-01
<MEAN> 39
 -1.509642e+01 -1.683598e+00 2.790765e-01 3.999661e+00 -3.406960e+00 -1.948009e+00 -1.458459e+00 3.544194e-01 -1.106755e-01 3.715516e-02 3.792410e-01 6.974235e-01 -7.966076e-01 1.263206e+00 -5.845214e-01 -9.223510e-02 1.751125e-01 -2.886854e-01 -3.060022e-01 -1.005016e+00 -4.313886e-01 -1.112862e-01 -5.366392e-02 -1.279676e-01 -1.116264e-01 -1.882022e-01 6.745849e-01 1.658634e-02 -1.877150e-01 -1.082226e-02 -5.485230e-02 -7.044174e-02 -6.057881e-01 -3.843602e-01 -2.154672e-01 -1.845659e-01 -1.342725e-01 -1.322906e-01 -1.339862e-01
<VARIANCE> 39
 4.367319e+01 3.474522e+01 3.745825e+01 3.903948e+01 3.237040e+01 3.039444e+01 3.439419e+01 3.202034e+01 2.586192e+01 2.418357e+01 2.147346e+01 1.916238e+01 1.520777e+01 9.141033e+00 3.288292e+00 5.772005e+00 5.572128e+00 4.030137e+00 4.513387e+00 7.862048e+00 6.085135e+00 4.121480e+00 3.612565e+00 3.072418e+00 2.986380e+00 2.367564e+00 6.335927e-01 6.836267e-01 1.316622e+00 1.245917e+00 8.721097e-01 8.448767e-01 1.055398e+00 1.052399e+00 7.416905e-01 6.777231e-01 5.816412e-01 5.572652e-01 4.454691e-01
<GCONST> 1.316220e+02
<STATE> 3
<NUMMIXES> 2
<MIXTURE> 1 5.000000e-01
<MEAN> 39
 7.353872e+00 -5.716943e+00 -8.627474e+00 3.317966e+00 -4.998190e+00 -3.110532e+00 -2.306458e+01 -1.170952e+01 -3.032434e+00 -2.275537e+00 -3.664638e+00 -1.818663e+00 -4.227994e+00 1.303254e+00 -8.844810e-01 -8.874974e-01 3.273105e-01 -4.704726e-01 -4.242744e-01 -2.722570e+00 -5.547428e-02 7.090571e-01 -5.075410e-01 -7.061265e-01 9.047780e-03 -5.472647e-02 -8.708068e-01 -1.546047e-01 6.868662e-01 2.620285e-01 -3.710291e-01 -3.221103e-01 6.882995e-01 8.682848e-01 1.650708e-01 -2.153390e-01 9.410740e-02 1.868424e-01 1.221343e-01
<VARIANCE> 39
 1.797468e+01 2.916670e+01 4.840653e+01 6.055624e+01 5.024045e+01 9.300114e+01 9.706221e+01 8.826809e+01 6.118975e+01 6.294537e+01 3.706461e+01 3.869067e+01 3.028250e+01 5.227780e+00 2.287461e+00 6.165743e+00 4.976365e+00 4.081921e+00 6.360396e+00 6.761708e+00 9.420620e+00 4.658007e+00 3.934937e+00 2.959447e+00 2.468937e+00 2.120834e+00 3.928190e-01 3.823442e-01 9.097984e-01 7.456941e-01 7.603599e-01 1.016381e+00 1.132523e+00 8.546952e-01 8.764218e-01 6.890595e-01 5.277668e-01 4.751253e-01 3.825267e-01
<GCONST> 1.359051e+02
<MIXTURE> 2 5.000000e-01
<MEAN> 39
 7.353872e+00 -5.716943e+00 -8.627474e+00 3.317966e+00 -4.998190e+00 -3.110532e+00 -2.306458e+01 -1.170952e+01 -3.032434e+00 -2.275537e+00 -3.664638e+00 -1.818663e+00 -4.227994e+00 1.303254e+00 -8.844810e-01 -8.874974e-01 3.273105e-01 -4.704726e-01 -4.242744e-01 -2.722570e+00 -5.547428e-02 7.090571e-01 -5.075410e-01 -7.061265e-01 9.047780e-03 -5.472647e-02 -8.708068e-01 -1.546047e-01 6.868662e-01 2.620285e-01 -3.710291e-01 -3.221103e-01 6.882995e-01 8.682848e-01 1.650708e-01 -2.153390e-01 9.410740e-02 1.868424e-01 1.221343e-01
<VARIANCE> 39
 1.797468e+01 2.916670e+01 4.840653e+01 6.055624e+01 5.024045e+01 9.300114e+01 9.706221e+01 8.826809e+01 6.118975e+01 6.294537e+01 3.706461e+01 3.869067e+01 3.028250e+01 5.227780e+00 2.287461e+00 6.165743e+00 4.976365e+00 4.081921e+00 6.360396e+00 6.761708e+00 9.420620e+00 4.658007e+00 3.934937e+00 2.959447e+00 2.468937e+00 2.120834e+00 3.928190e-01 3.823442e-01 9.097984e-01 7.456941e-01 7.603599e-01 1.016381e+00 1.132523e+00 8.546952e-01 8.764218e-01 6.890595e-01 5.277668e-01 4.751253e-01 3.825267e-01
<GCONST> 1.359051e+02
<STATE> 4
<NUMMIXES> 2
<MIXTURE> 1 5.000000e-01
<MEAN> 39
 3.935539e+00 -1.223973e+01 5.639176e-01 9.849645e+00 -1.501942e+01 -1.250920e+01 -2.648249e+01 2.367027e-01 -3.302597e-01 -1.062222e+01 -5.354587e+00 8.418282e-01 -3.902937e+00 -1.557144e+00 -3.511143e-01 3.723647e+00 4.045819e-01 -3.211236e+00 -1.234422e+00 2.477732e+00 1.556707e+00 -2.003483e+00 -1.748571e+00 1.214612e+00 3.982280e-01 -3.833417e-01 -1.004136e-01 5.148821e-01 1.577718e-01 -5.701163e-01 1.124511e-01 7.550315e-01 6.440420e-01 -9.345819e-01 -5.698464e-01 5.323558e-01 3.640036e-01 -3.565649e-01 -1.116434e-01
<VARIANCE> 39
 1.302429e+01 2.290320e+01 6.053686e+01 7.679602e+01 6.580054e+01 6.283427e+01 7.589409e+01 1.086090e+02 1.139219e+02 8.083864e+01 6.060472e+01 6.333348e+01 3.785809e+01 4.369453e-01 1.177070e+00 1.764069e+00 2.234088e+00 2.480761e+00 4.032356e+00 3.744309e+00 5.152146e+00 4.136164e+00 4.057382e+00 3.033614e+00 2.675053e+00 1.491825e+00 1.158923e-01 1.327161e-01 4.373278e-01 2.676247e-01 5.325673e-01 5.142388e-01 9.471939e-01 6.881734e-01 7.421153e-01 6.115267e-01 5.483394e-01 3.681807e-01 2.599942e-01
<GCONST> 1.236815e+02
<MIXTURE> 2 5.000000e-01
<MEAN> 39
 3.935539e+00 -1.223973e+01 5.639176e-01 9.849645e+00 -1.501942e+01 -1.250920e+01 -2.648249e+01 2.367027e-01 -3.302597e-01 -1.062222e+01 -5.354587e+00 8.418282e-01 -3.902937e+00 -1.557144e+00 -3.511143e-01 3.723647e+00 4.045819e-01 -3.211236e+00 -1.234422e+00 2.477732e+00 1.556707e+00 -2.003483e+00 -1.748571e+00 1.214612e+00 3.982280e-01 -3.833417e-01 -1.004136e-01 5.148821e-01 1.577718e-01 -5.701163e-01 1.124511e-01 7.550315e-01 6.440420e-01 -9.345819e-01 -5.698464e-01 5.323558e-01 3.640036e-01 -3.565649e-01 -1.116434e-01
<VARIANCE> 39
 1.302429e+01 2.290320e+01 6.053686e+01 7.679602e+01 6.580054e+01 6.283427e+01 7.589409e+01 1.086090e+02 1.139219e+02 8.083864e+01 6.060472e+01 6.333348e+01 3.785809e+01 4.369453e-01 1.177070e+00 1.764069e+00 2.234088e+00 2.480761e+00 4.032356e+00 3.744309e+00 5.152146e+00 4.136164e+00 4.057382e+00 3.033614e+00 2.675053e+00 1.491825e+00 1.158923e-01 1.327161e-01 4.373278e-01 2.676247e-01 5.325673e-01 5.142388e-01 9.471939e-01 6.881734e-01 7.421153e-01 6.115267e-01 5.483394e-01 3.681807e-01 2.599942e-01
<GCONST> 1.236815e+02
<STATE> 5
<NUMMIXES> 2
<MIXTURE> 1 5.000000e-01
<MEAN> 39
 -3.437627e+00 -6.680178e+00 1.587124e+01 3.889716e+00 -2.523409e+01 -8.545974e+00 -1.488974e+01 -5.222808e+00 -1.131978e+01 -9.545485e+00 -4.769177e-01 -4.143235e+00 -4.670688e+00 -5.970536e-01 1.070972e+00 1.113358e+00 -4.966303e-01 -2.882661e-01 7.995347e-01 8.892357e-01 -9.043746e-01 -6.821906e-01 3.838583e-01 -8.462869e-03 -6.112323e-01 9.247918e-02 1.397152e-01 6.964834e-02 -4.388305e-01 1.021673e-01 4.297957e-01 -5.431175e-02 -1.656946e-01 1.092761e-01 2.488096e-01 5.122352e-02 -1.778877e-01 6.278352e-02 4.826864e-02
<VARIANCE> 39
 1.593985e+01 4.222641e+01 3.855265e+01 1.085239e+02 4.324771e+01 4.556519e+01 4.941740e+01 6.889888e+01 1.098616e+02 5.398597e+01 5.376408e+01 9.580772e+01 3.134182e+01 5.007954e-01 8.004702e-01 1.864246e+00 1.321071e+00 1.644872e+00 1.801440e+00 1.926120e+00 2.818744e+00 1.872751e+00 2.045763e+00 1.871402e+00 1.439484e+00 1.176975e+00 6.488724e-02 1.325879e-01 2.036854e-01 2.013319e-01 3.534834e-01 3.050605e-01 4.011496e-01 3.467397e-01 3.343263e-01 3.065195e-01 3.063959e-01 2.416736e-01 1.935713e-01
<GCONST> 1.095167e+02
<MIXTURE> 2 5.000000e-01
<MEAN> 39
 -3.437627e+00 -6.680178e+00 1.587124e+01 3.889716e+00 -2.523409e+01 -8.545974e+00 -1.488974e+01 -5.222808e+00 -1.131978e+01 -9.545485e+00 -4.769177e-01 -4.143235e+00 -4.670688e+00 -5.970536e-01 1.070972e+00 1.113358e+00 -4.966303e-01 -2.882661e-01 7.995347e-01 8.892357e-01 -9.043746e-01 -6.821906e-01 3.838583e-01 -8.462869e-03 -6.112323e-01 9.247918e-02 1.397152e-01 6.964834e-02 -4.388305e-01 1.021673e-01 4.297957e-01 -5.431175e-02 -1.656946e-01 1.092761e-01 2.488096e-01 5.122352e-02 -1.778877e-01 6.278352e-02 4.826864e-02
<VARIANCE> 39
 1.593985e+01 4.222641e+01 3.855265e+01 1.085239e+02 4.324771e+01 4.556519e+01 4.941740e+01 6.889888e+01 1.098616e+02 5.398597e+01 5.376408e+01 9.580772e+01 3.134182e+01 5.007954e-01 8.004702e-01 1.864246e+00 1.321071e+00 1.644872e+00 1.801440e+00 1.926120e+00 2.818744e+00 1.872751e+00 2.045763e+00 1.871402e+00 1.439484e+00 1.176975e+00 6.488724e-02 1.325879e-01 2.036854e-01 2.013319e-01 3.534834e-01 3.050605e-01 4.011496e-01 3.467397e-01 3.343263e-01 3.065195e-01 3.063959e-01 2.416736e-01 1.935713e-01
<GCONST> 1.095167e+02
<STATE> 6
<NUMMIXES> 2
<MIXTURE> 1 5.000000e-01
<MEAN> 39
 -6.822450e+00 6.748226e-01 1.251939e+01 4.697214e+00 -1.501271e+01 -4.000025e+00 -5.966188e+00 -5.352541e+00 -1.064299e+01 -7.237177e+00 -2.598845e+00 -4.530704e+00 -3.899382e+00 -1.012170e+00 5.521859e-01 -1.918729e+00 -1.085646e-01 2.525224e+00 3.530871e-01 1.401226e+00 7.972291e-01 1.020712e+00 7.743209e-01 1.019311e-01 4.431613e-01 3.207013e-01 -1.891676e-01 -2.012892e-01 -3.308216e-01 -1.160118e-01 6.801534e-02 7.415393e-02 -5.713983e-02 1.740080e-01 2.952753e-01 1.419175e-01 8.371714e-02 1.180702e-01 5.795075e-02
<VARIANCE> 39
 3.152823e+01 3.983763e+01 5.926403e+01 7.573347e+01 1.071459e+02 8.272908e+01 9.973447e+01 7.655006e+01 9.071898e+01 5.282801e+01 5.157315e+01 7.163149e+01 3.201382e+01 3.604718e+00 4.183281e+00 3.702012e+00 4.067148e+00 5.928039e+00 5.264291e+00 5.748882e+00 5.120542e+00 6.186426e+00 4.689554e+00 4.179068e+00 4.406072e+00 2.618124e+00 3.793710e-01 6.423947e-01 6.567312e-01 5.914803e-01 1.290574e+00 9.170426e-01 9.119622e-01 8.022657e-01 8.537604e-01 7.359824e-01 6.858908e-01 6.159440e-01 4.513507e-01
<GCONST> 1.402759e+02
<MIXTURE> 2 5.000000e-01
<MEAN> 39
 -6.822450e+00 6.748226e-01 1.251939e+01 4.697214e+00 -1.501271e+01 -4.000025e+00 -5.966188e+00 -5.352541e+00 -1.064299e+01 -7.237177e+00 -2.598845e+00 -4.530704e+00 -3.899382e+00 -1.012170e+00 5.521859e-01 -1.918729e+00 -1.085646e-01 2.525224e+00 3.530871e-01 1.401226e+00 7.972291e-01 1.020712e+00 7.743209e-01 1.019311e-01 4.431613e-01 3.207013e-01 -1.891676e-01 -2.012892e-01 -3.308216e-01 -1.160118e-01 6.801534e-02 7.415393e-02 -5.713983e-02 1.740080e-01 2.952753e-01 1.419175e-01 8.371714e-02 1.180702e-01 5.795075e-02
<VARIANCE> 39
 3.152823e+01 3.983763e+01 5.926403e+01 7.573347e+01 1.071459e+02 8.272908e+01 9.973447e+01 7.655006e+01 9.071898e+01 5.282801e+01 5.157315e+01 7.163149e+01 3.201382e+01 3.604718e+00 4.183281e+00 3.702012e+00 4.067148e+00 5.928039e+00 5.264291e+00 5.748882e+00 5.120542e+00 6.186426e+00 4.689554e+00 4.179068e+00 4.406072e+00 2.618124e+00 3.793710e-01 6.423947e-01 6.567312e-01 5.914803e-01 1.290574e+00 9.170426e-01 9.119622e-01 8.022657e-01 8.537604e-01 7.359824e-01 6.858908e-01 6.159440e-01 4.513507e-01
<GCONST> 1.402759e+02
<TRANSP> 7
 0.000000e+00 1.000000e+00 0.000000e+00 0.000000e+00 0.000000e+00 0.000000e+00 0.000000e+00
 0.000000e+00 8.929882e-01 1.070118e-01 0.000000e+00 0.000000e+00 0.000000e+00 0.000000e+00
 0.000000e+00 0.000000e+00 8.517094e-01 1.482906e-01 0.000000e+00 0.000000e+00 0.000000e+00
 0.000000e+00 0.000000e+00 0.000000e+00 7.546757e-01 2.453243e-01 0.000000e+00 0.000000e+00
 0.000000e+00 0.000000e+00 0.000000e+00 0.000000e+00 8.738746e-01 1.261254e-01 0.000000e+00
 0.000000e+00 0.000000e+00 0.000000e+00 0.000000e+00 0.000000e+00 8.459639e-01 1.540361e-01
 0.000000e+00 0.000000e+00 0.000000e+00 0.000000e+00 0.000000e+00 0.000000e+00 0.000000e+00
<ENDHMM>
~h "hmm_word_4"
<BEGINHMM>
<NUMSTATES> 7
<STATE> 2
<NUMMIXES> 2
<MIXTURE> 1 5.000000e-01
<MEAN> 39
 -1.886138e+01 -5.414160e+00 -5.532612e+00 4.260881e+00 -3.890522e+00 1.691564e+00 -3.712555e+00 -6.320106e-01 -9.669356e-01 4.464575e-01 5.566790e-01 9.620789e-01 -1.282679e+00 1.139476e+00 1.498117e-01 -2.804245e-01 -8.983629e-01 -8.544642e-01 -1.449291e-01 -2.858273e-02 -1.732926e-01 -1.816656e-01 -3.527042e-01 -1.026872e-01 -1.134660e-01 -8.553284e-02 8.964285e-01 3.546154e-01 1.660725e-01 -4.296904e-01 -5.399774e-01 -1.366102e-01 -6.555460e-02 -1.172069e-01 -1.824581e-01 -3.841095e-01 -1.515436e-01 -1.897635e-01 -1.334917e-01
<VARIANCE> 39
 2.976557e+01 2.026757e+01 1.737926e+01 1.784091e+01 1.844987e+01 1.897652e+01 1.886806e+01 1.821274e+01 1.703496e+01 1.672983e+01 1.437964e+01 1.314233e+01 1.032585e+01 1.066659e+01 3.279601e+00 2.185155e+00 3.411965e+00 3.958351e+00 2.112363e+00 2.257088e+00 2.264316e+00 2.863859e+00 3.340366e+00 2.086516e+00 2.137703e+00 1.432521e+00 5.911416e-01 4.455874e-01 3.629832e-01 6.374820e-01 9.160706e-01 4.427557e-01 4.885000e-01 4.560440e-01 5.639234e-01 4.959418e-01 4.021485e-01 4.169504e-01 2.825298e-01
<GCONST> 1.126492e+02
<MIXTURE> 2 5.000000e-01
<MEAN> 39
 -1.886138e+01 -5.414160e+00 -5.532612e+00 4.260881e+00 -3.890522e+00 1.691564e+00 -3.712555e+00 -6.320106e-01 -9.669356e-01 4.464575e-01 5.566790e-01 9.620789e-01 -1.282679e+00 1.139476e+00 1.498117e-01 -2.804245e-01 -8.983629e-01 -8.544642e-01 -1.449291e-01 -2.858273e-02 -1.732926e-01 -1.816656e-01 -3.527042e-01 -1.026872e-01 -1.134660e-01 -8.553284e-02 8.964285e-01 3.546154e-01 1.660725e-01 -4.296904e-01 -5.399774e-01 -1.366102e-01 -6.555460e-02 -1.172069e-01 -1.824581e-01 -3.841095e-01 -1.515436e-01 -1.897635e-01 -1.334917e-01
<VARIANCE> 39
 2.976557e+01 2.026757e+01 1.737926e+01 1.784091e+01 1.844987e+01 1.897652e+01 1.886806e+01 1.821274e+01 1.703496e+01 1.672983e+01 1.437964e+01 1.314233e+01 1.032585e+01 1.066659e+01 3.279601e+00 2.185155e+00 3.411965e+00 3.958351e+00 2.112363e+00 2.257088e+00 2.264316e+00 2.863859e+00 3.340366e+00 2.086516e+00 2.137703e+00 1.432521e+00 5.911416e-01 4.455874e-01 3.629832e-01 6.374820e-01 9.160706e-01 4.427557e-01 4.885000e-01 4.560440e-01 5.639234e-01 4.959418e-01 4.021485e-01 4.169504e-01 2.825298e-01
<GCONST> 1.126492e+02
<STATE> 3
<NUMMIXES> 2
<MIXTURE> 1 5.000000e-01
<MEAN> 39
 5.737757e+00 2.569627e+00 -4.248750e+00 -1.169982e+01 -2.269562e+01 -1.342017e+00 -4.828183e+00 -3.669578e+00 -4.637893e+00 -9.358723e+00 -2.906975e+00 -3.544737e+00 -4.522035e+00 3.199062e+00 9.578512e-01 3.984476e-01 -2.986423e+00 -4.052052e+00 -2.848621e-01 -6.708878e-02 -1.519964e-01 1.072098e-01 -1.383724e+00 -2.316831e-01 -6.036423e-01 -6.151299e-01 -1.471526e+00 -5.451656e-01 -1.247798e-01 8.146316e-01 9.591308e-01 1.036360e-01 2.523219e-02 1.756408e-01 3.042956e-01 5.763633e-01 2.141356e-01 2.511996e-01 1.288146e-01
<VARIANCE> 39
 2.172069e+01 2.734056e+01 3.403001e+01 7.050389e+01 6.343475e+01 4.534908e+01 6.395428e+01 4.230077e+01 7.301245e+01 4.863493e+01 3.896047e+01 6.661031e+01 2.415304e+01 8.163337e+00 3.305860e+00 2.426258e+00 6.832827e+00 7.765447e+00 3.917557e+00 4.302633e+00 3.533790e+00 5.176039e+00 5.226754e+00 3.578531e+00 5.044010e+00 2.263973e+00 3.948513e-01 3.862466e-01 3.475738e-01 7.888466e-01 1.136757e+00 4.936399e-01 5.755748e-01 4.773197e-01 6.687580e-01 5.494114e-01 4.724014e-01 5.534106e-01 3.166566e-01
<GCONST> 1.316462e+02
<MIXTURE> 2 5.000000e-01
<MEAN> 39
 5.737757e+00 2.569627e+00 -4.248750e+00 -1.169982e+01 -2.269562e+01 -1.342017e+00 -4.828183e+00 -3.669578e+00 -4.637893e+00 -9.358723e+00 -2.906975e+00 -3.544737e+00 -4.522035e+00 3.199062e+00 9.578512e-01 3.984476e-01 -2.986423e+00 -4.052052e+00 -2.848621e-01 -6.708878e-02 -1.519964e-01 1.072098e-01 -1.383724e+00 -2.316831e-01 -6.036423e-01 -6.151299e-01 -1.471526e+00 -5.451656e-01 -1.247798e-01 8.146316e-01 9.591308e-01 1.036360e-01 2.523219e-02 1.756408e-01 3.042956e-01 5.763633e-01 2.141356e-01 2.511996e-01 1.288146e-01
<VARIANCE> 39
 2.172069e+01 2.734056e+01 3.403001e+01 7.050389e+01 6.343475e+01 4.534908e+01 6.395428e+01 4.230077e+01 7.301245e+01 4.863493e+01 3.896047e+01 6.661031e+01 2.415304e+01 8.163337e+00 3.305860e+00 2.426258e+00 6.832827e+00 7.765447e+00 3.917557e+00 4.302633e+00 3.533790e+00 5.176039e+00 5.226754e+00 3.578531e+00 5.044010e+00 2.263973e+00 3.948513e-01 3.862466e-01 3.475738e-01 7.888466e-01 1.136757e+00 4.936399e-01 5.755748e-01 4.773197e-01 6.687580e-01 5.494114e-01 4.724014e-01 5.534106e-01 3.166566e-01
<GCONST> 1.316462e+02
<STATE> 4
<NUMMIXES> 2
<MIXTURE> 1 5.000000e-01
<MEAN> 39
 7.514288e+00 3.337566e+00 -2.870484e+00 -1.472161e+01 -2.762546e+01 -2.565732e+00 -3.786812e+00 -2.751714e+00 -2.053167e+00 -9.180222e+00 -3.050452e+00 -3.477833e+00 -5.816340e+00 5.001301e-02 -1.612715e-01 -4.581958e-01 1.254599e-01 4.128509e-01 -6.818154e-02 7.977460e-02 3.362464e-01 3.388500e-02 -2.680116e-01 2.354345e-02 2.913993e-01 1.036974e-01 -4.495437e-02 -1.734528e-01 -2.818174e-01 1.685507e-01 4.058565e-01 1.321449e-01 -6.951100e-02 5.859383e-04 -1.060878e-01 -9.027900e-02 5.253290e-02 1.455486e-01 9.148299e-02
<VARIANCE> 39
 1.090574e+01 3.056596e+01 3.991652e+01 6.657471e+01 3.894730e+01 5.766448e+01 7.262505e+01 5.675672e+01 8.437445e+01 6.770738e+01 4.995016e+01 8.558021e+01 3.455010e+01 1.361665e-01 1.022674e+00 1.337351e+00 7.271534e-01 1.304844e+00 1.284665e+00 1.358042e+00 1.282311e+00 1.589446e+00 1.634662e+00 1.520957e+00 1.333346e+00 1.150729e+00 4.211534e-02 1.066433e-01 1.325510e-01 1.665026e-01 2.259278e-01 2.137440e-01 2.463316e-01 2.317664e-01 2.366061e-01 2.543275e-01 2.511660e-01 2.144332e-01 2.075553e-01
<GCONST> 1.004229e+02
<MIXTURE> 2 5.000000e-01
<MEAN> 39
 7.514288e+00 3.337566e+00 -2.870484e+00 -1.472161e+01 -2.762546e+01 -2.565732e+00 -3.786812e+00 -2.751714e+00 -2.053167e+00 -9.180222e+00 -3.050452e+00 -3.477833e+00 -5.816340e+00 5.001301e-02 -1.612715e-01 -4.581958e-01 1.254599e-01 4.128509e-01 -6.818154e-02 7.977460e-02 3.362464e-01 3.388500e-02 -2.680116e-01 2.354345e-02 2.913993e-01 1.036974e-01 -4.495437e-02 -1.734528e-01 -2.818174e-01 1.685507e-01 4.058565e-01 1.321449e-01 -6.951100e-02 5.859383e-04 -1.060878e-01 -9.027900e-02 5.253290e-02 1.455486e-01 9.148299e-02
<VARIANCE> 39
 1.090574e+01 3.056596e+01 3.991652e+01 6.657471e+01 3.894730e+01 5.766448e+01 7.262505e+01 5.675672e+01 8.437445e+01 6.770738e+01 4.995016e+01 8.558021e+01 3.455010e+01 1.361665e-01 1.022674e+00 1.337351e+00 7.271534e-01 1.304844e+00 1.284665e+00 1.358042e+00 1.282311e+00 1.589446e+00 1.634662e+00 1.520957e+00 1.333346e+00 1.150729e+00 4.211534e-02 1.066433e-01 1.325510e-01 1.665026e-01 2.259278e-01 2.137440e-01 2.463316e-01 2.317664e-01 2.366061e-01 2.543275e-01 2.511660e-01 2.144332e-01 2.075553e-01
<GCONST> 1.004229e+02
<STATE> 5
<NUMMIXES> 2
<MIXTURE> 1 5.000000e-01
<MEAN> 39
 7.661784e+00 -2.767595e+00 -1.476176e+01 -1.024897e+01 -1.263708e+01 1.266101e+00 -1.142755e+01 -2.649467e+00 -1.375916e+00 -1.039491e+01 -1.390200e+00 -6.641179e-01 -4.624821e+00 -9.393074e-02 -6.983067e-01 -1.220639e+00 1.033267e+00 2.271163e+00 4.758039e-01 -1.829081e+00 -5.283411e-01 4.380991e-01 6.909781e-01 1.217488e-01 -2.106417e-01 -1.707158e-01 -7.124335e-02 1.340201e-01 3.493702e-01 1.641751e-01 -1.021423e-01 -1.765316e-01 -5.992591e-02 -1.905588e-02 1.122779e-01 2.304784e-01 -1.447919e-01 -2.623730e-01 -8.041440e-02
<VARIANCE> 39
 1.120970e+01 4.112272e+01 4.425638e+01 5.049837e+01 9.038039e+01 6.261206e+01 1.123474e+02 9.341574e+01 1.220054e+02 1.031830e+02 7.882285e+01 1.041896e+02 5.361371e+01 2.464850e-01 1.293642e+00 1.978184e+00 2.058879e+00 2.465677e+00 3.323295e+00 3.325726e+00 3.658907e+00 3.188097e+00 3.320837e+00 4.189380e+00 3.105129e+00 2.920755e+00 4.221567e-02 1.346713e-01 2.258250e-01 2.359788e-01 3.658387e-01 3.966206e-01 6.202272e-01 5.569929e-01 5.284415e-01 5.548906e-01 6.785025e-01 4.637773e-01 4.731851e-01
<GCONST> 1.224922e+02
<MIXTURE> 2 5.000000e-01
<MEAN> 39
 7.661784e+00 -2.767595e+00 -1.476176e+01 -1.024897e+01 -1.263708e+01 1.266101e+00 -1.142755e+01 -2.649467e+00 -1.375916e+00 -1.039491e+01 -1.390200e+00 -6.641179e-01 -4.624821e+00 -9.393074e-02 -6.983067e-01 -1.220639e+00 1.033267e+00 2.271163e+00 4.758039e-01 -1.829081e+00 -5.283411e-01 4.380991e-01 6.909781e-01 1.217488e-01 -2.106417e-01 -1.707158e-01 -7.124335e-02 1.340201e-01 3.493702e-01 1.641751e-01 -1.021423e-01 -1.765316e-01 -5.992591e-02 -1.905588e-02 1.122779e-01 2.304784e-01 -1.447919e-01 -2.623730e-01 -8.041440e-02
<VARIANCE> 39
 1.120970e+01 4.112272e+01 4.425638e+01 5.049837e+01 9.038039e+01 6.261206e+01 1.123474e+02 9.341574e+01 1.220054e+02 1.031830e+02 7.882285e+01 1.041896e+02 5.361371e+01 2.464850e-01 1.293642e+00 1.978184e+00 2.058879e+00 2.465677e+00 3.323295e+00 3.325726e+00 3.658907e+00 3.188097e+00 3.320837e+00 4.189380e+00 3.105129e+00 2.920755e+00 4.221567e-02 1.346713e-01 2.258250e-01 2.359788e-01 3.658387e-01 3.966206e-01 6.202272e-01 5.569929e-01 5.284415e-01 5.548906e-01 6.785025e-01 4.637773e-01 4.731851e-01
<GCONST> 1.224922e+02
<STATE> 6
<NUMMIXES> 2
<MIXTURE> 1 5.000000e-01
<MEAN> 39
 1.302652e+00 -4.213401e+00 -9.702881e+00 1.685870e+00 -2.228282e+00 -8.633072e-01 -1.491492e+01 -2.584233e+00 1.726376e-01 -5.545624e+00 -4.899994e+00 -5.265536e+00 -4.948126e+00 -2.062528e+00 2.132413e-01 2.102523e+00 1.351965e+00 6.299061e-01 -4.832831e-01 1.678178e+00 5.733569e-01 -6.590764e-02 4.622128e-01 -2.438353e-01 3.819790e-02 4.426801e-01 -3.397670e-01 1.256933e-01 8.493099e-02 -2.985419e-01 -1.821178e-01 1.282327e-01 4.635092e-01 1.024426e-01 -8.791898e-02 -2.830797e-02 2.436458e-01 2.578412e-01 1.163498e-01
<VARIANCE> 39
 4.588599e+01 4.358025e+01 7.837966e+01 6.139416e+01 1.069905e+02 8.518198e+01 1.206153e+02 9.453749e+01 8.453339e+01 9.064232e+01 6.347020e+01 5.876163e+01 3.447262e+01 4.312553e+00 4.185988e+00 4.731090e+00 4.754290e+00 5.738431e+00 4.744554e+00 7.887804e+00 5.916728e+00 5.105268e+00 5.083403e+00 5.372015e+00 4.320395e+00 2.787055e+00 5.340968e-01 6.791120e-01 1.116119e+00 7.679870e-01 8.884249e-01 8.012032e-01 1.357116e+00 1.012436e+00 8.719705e-01 8.180704e-01 7.845380e-01 5.874791e-01 4.800537e-01
<GCONST> 1.444671e+02
<MIXTURE> 2 5.000000e-01
<MEAN> 39
 1.302652e+00 -4.213401e+00 -9.702881e+00 1.685870e+00 -2.228282e+00 -8.633072e-01 -1.491492e+01 -2.584233e+00 1.726376e-01 -5.545624e+00 -4.899994e+00 -5.265536e+00 -4.948126e+00 -2.062528e+00 2.132413e-01 2.102523e+00 1.351965e+00 6.299061e-01 -4.832831e-01 1.678178e+00 5.733569e-01 -6.590764e-02 4.622128e-01 -2.438353e-01 3.819790e-02 4.426801e-01 -3.397670e-01 1.256933e-01 8.493099e-02 -2.985419e-01 -1.821178e-01 1.282327e-01 4.635092e-01 1.024426e-01 -8.791898e-02 -2.830797e-02 2.436458e-01 2.578412e-01 1.163498e-01
<VARIANCE> 39
 4.588599e+01 4.358025e+01 7.837966e+01 6.139416e+01 1.069905e+02 8.518198e+01 1.206153e+02 9.453749e+01 8.453339e+01 9.064232e+01 6.347020e+01 5.876163e+01 3.447262e+01 4.312553e+00 4.185988e+00 4.731090e+00 4.754290e+00 5.738431e+00 4.744554e+00 7.887804e+00 5.916728e+00 5.105268e+00 5.083403e+00 5.372015e+00 4.320395e+00 2.787055e+00 5.340968e-01 6.791120e-01 1.116119e+00 7.679870e-01 8.884249e-01 8.012032e-01 1.357116e+00 1.012436e+00 8.719705e-01 8.180704e-01 7.845380e-01 5.874791e-01 4.800537e-01
<GCONST> 1.444671e+02
<TRANSP> 7
 0.000000e+00 1.000000e+00 0.000000e+00 0.000000e+00 0.000000e+00 0.000000e+00 0.000000e+00
 0.000000e+00 8.946531e-01 1.053469e-01 0.000000e+00 0.000000e+00 0.000000e+00 0.000000e+00
 0.000000e+00 0.000000e+00 7.452604e-01 2.547396e-01 0.000000e+00 0.000000e+00 0.000000e+00
 0.000000e+00 0.000000e+00 0.000000e+00 8.698917e-01 1.301083e-01 0.000000e+00 0.000000e+00
 0.000000e+00 0.000000e+00 0.000000e+00 0.000000e+00 8.687370e-01 1.312629e-01 0.000000e+00
 0.000000e+00 0.000000e+00 0.000000e+00 0.000000e+00 0.000000e+00 8.488634e-01 1.511366e-01
 0.000000e+00 0.000000e+00 0.000000e+00 0.000000e+00 0.000000e+00 0.000000e+00 0.000000e+00
<ENDHMM>
~h "hmm_word_5"
<BEGINHMM>
<NUMSTATES> 7
<STATE> 2
<NUMMIXES> 2
<MIXTURE> 1 5.000000e-01
<MEAN> 39
 -1.514209e+01 -5.378077e+00 -4.377245e+00 2.231319e+00 -4.807273e+00 8.639143e-01 -3.207005e+00 -5.867009e-01 -1.040166e+00 -2.809915e-01 -2.780014e-01 -5.123363e-02 -2.349122e+00 1.971617e+00 -8.056411e-01 -7.501609e-01 -1.577360e+00 -9.120523e-01 1.991260e-01 5.132698e-02 -3.114629e-01 -2.656783e-01 -1.746598e-01 -8.081038e-02 -3.785603e-01 -7.152840e-01 6.060421e-01 -1.706853e-01 -5.670780e-02 -3.067155e-01 -1.933906e-01 8.018515e-02 -4.143094e-02 -1.424929e-01 -2.141629e-01 -1.953085e-01 -1.181796e-01 -2.096811e-01 -2.346602e-01
<VARIANCE> 39
 9.114822e+01 2.393942e+01 2.057428e+01 3.875683e+01 2.893899e+01 2.389288e+01 2.233286e+01 2.303276e+01 2.347146e+01 2.269810e+01 1.983785e+01 2.560134e+01 1.947853e+01 1.511867e+01 2.926354e+00 2.540258e+00 4.775808e+00 3.649071e+00 3.011230e+00 3.228151e+00 3.143924e+00 3.862972e+00 3.665727e+00 2.962504e+00 5.382054e+00 3.266334e+00 1.720933e+00 5.540964e-01 4.394960e-01 6.802070e-01 6.979089e-01 5.326396e-01 5.448622e-01 5.098225e-01 5.879061e-01 5.613723e-01 4.598503e-01 6.619056e-01 4.259924e-01
<GCONST> 1.252320e+02
<MIXTURE> 2 5.000000e-01
<MEAN> 39
 -1.514209e+01 -5.378077e+00 -4.377245e+00 2.231319e+00 -4.807273e+00 8.639143e-01 -3.207005e+00 -5.867009e-01 -1.040166e+00 -2.809915e-01 -2.780014e-01 -5.123363e-02 -2.349122e+00 1.971617e+00 -8.056411e-01 -7.501609e-01 -1.577360e+00 -9.120523e-01 1.991260e-01 5.132698e-02 -3.114629e-01 -2.656783e-01 -1.746598e-01 -8.081038e-02 -3.785603e-01 -7.152840e-01 6.060421e-01 -1.706853e-01 -5.670780e-02 -3.067155e-01 -1.933906e-01 8.018515e-02 -4.143094e-02 -1.424929e-01 -2.141629e-01 -1.953085e-01 -1.181796e-01 -2.096811e-01 -2.346602e-01
<VARIANCE> 39
 9.114822e+01 2.393942e+01 2.057428e+01 3.875683e+01 2.893899e+01 2.389288e+01 2.233286e+01 2.303276e+01 2.347146e+01 2.269810e+01 1.983785e+01 2.560134e+01 1.947853e+01 1.511867e+01 2.926354e+00 2.540258e+00 4.775808e+00 3.649071e+00 3.011230e+00 3.228151e+00 3.143924e+00 3.862972e+00 3.665727e+00 2.962504e+00 5.382054e+00 3.266334e+00 1.720933e+00 5.540964e-01 4.394960e-01 6.802070e-01 6.979089e-01 5.326396e-01 5.448622e-01 5.098225e-01 5.879061e-01 5.613723e-01 4.598503e-01 6.619056e-01 4.259924e-01
<GCONST> 1.252320e+02
<STATE> 3
<NUMMIXES> 2
<MIXTURE> 1 5.000000e-01
<MEAN> 39
 4.101527e+00 -1.508557e+01 -9.878546e+00 -1.199369e+01 -1.138999e+01 4.854923e+00 -2.838120e+00 -4.653803e+00 -5.690251e+00 -4.016778e+00 -3.161579e+00 -6.328875e+00 -1.058802e+01 2.497757e-01 -1.820050e+00 -5.176648e-01 -6.629089e-01 4.133322e-01 1.169479e+00 3.736445e-01 -4.379138e-01 -3.512507e-01 -2.027699e-01 -6.285160e-01 -6.933443e-01 -4.642176e-01 -1.136760e+00 4.875972e-01 3.159499e-01 8.950714e-01 6.070876e-01 -1.790009e-01 -8.047085e-03 8.600244e-02 2.535422e-01 2.034256e-01 6.607471e-02 3.156411e-01 5.403700e-01
<VARIANCE> 39
 1.364218e+01 3.051689e+01 3.283130e+01 4.026501e+01 5.101862e+01 6.572372e+01 7.115314e+01 5.249563e+01 6.715793e+01 6.303912e+01 6.023063e+01 1.301655e+02 4.216537e+01 2.287234e+00 2.227622e+00 1.276873e+00 3.007291e+00 2.646929e+00 2.249500e+00 2.306811e+00 2.504530e+00 2.434724e+00 2.525045e+00 1.918220e+00 3.154508e+00 2.176229e+00 8.417701e-01 2.750548e-01 2.563723e-01 4.501460e-01 5.743212e-01 4.285862e-01 5.173631e-01 4.392762e-01 5.129013e-01 4.734589e-01 4.946190e-01 1.051443e+00 4.031528e-01
<GCONST> 1.237204e+02
<MIXTURE> 2 5.000000e-01
<MEAN> 39
 4.101527e+00 -1.508557e+01 -9.878546e+00 -1.199369e+01 -1.138999e+01 4.854923e+00 -2.838120e+00 -4.653803e+00 -5.690251e+00 -4.016778e+00 -3.161579e+00 -6.328875e+00 -1.058802e+01 2.497757e-01 -1.820050e+00 -5.176648e-01 -6.629089e-01 4.133322e-01 1.169479e+00 3.736445e-01 -4.379138e-01 -3.512507e-01 -2.027699e-01 -6.285160e-01 -6.933443e-01 -4.642176e-01 -1.136760e+00 4.875972e-01 3.159499e-01 8.950714e-01 6.070876e-01 -1.790009e-01 -8.047085e-03 8.600244e-02 2.535422e-01 2.034256e-01 6.607471e-02 3.156411e-01 5.403700e-01
<VARIANCE> 39
 1.364218e+01 3.051689e+01 3.283130e+01 4.026501e+01 5.101862e+01 6.572372e+01 7.115314e+01 5.249563e+01 6.715793e+01 6.303912e+01 6.023063e+01 1.301655e+02 4.216537e+01 2.287234e+00 2.227622e+00 1.276873e+00 3.007291e+00 2.646929e+00 2.249500e+00 2.306811e+00 2.504530e+00 2.434724e+00 2.525045e+00 1.918220e+00 3.154508e+00 2.176229e+00 8.417701e-01 2.750548e-01 2.563723e-01 4.501460e-01 5.743212e-01 4.285862e-01 5.173631e-01 4.392762e-01 5.129013e-01 4.734589e-01 4.946190e-01 1.051443e+00 4.031528e-01
<GCONST> 1.237204e+02
<STATE> 4
<NUMMIXES> 2
<MIXTURE> 1 5.000000e-01
<MEAN> 39
 2.160888e+00 -1.738109e+01 -9.288774e+00 -7.848474e+00 -7.308233e+00 5.704550e+00 -3.121445e+00 -5.527257e+00 -4.531339e+00 -3.821269e+00 -5.760500e+00 -7.397368e+00 -8.974946e+00 -1.123104e-01 -5.736182e-02 1.784162e-01 4.764850e-01 7.340734e-02 -4.227331e-01 -2.934766e-01 3.245704e-01 3.356412e-01 -6.344111e-02 -2.489797e-01 -1.435742e-01 1.529021e-01 2.542533e-02 9.622285e-02 6.118580e-02 1.703779e-02 -1.364771e-01 -1.634235e-01 -6.373179e-02 1.186823e-01 5.155130e-02 -2.067657e-02 2.611147e-02 1.581030e-02 2.767308e-03
<VARIANCE> 39
 1.330476e+01 3.052460e+01 3.039182e+01 4.235331e+01 4.789899e+01 7.816711e+01 6.962340e+01 6.962862e+01 7.484525e+01 7.679267e+01 5.164460e+01 7.087557e+01 4.393782e+01 1.408290e-01 3.565558e-01 3.614484e-01 5.632614e-01 8.809614e-01 1.055319e+00 9.852400e-01 1.284205e+00 1.027870e+00 8.452851e-01 7.678423e-01 8.205053e-01 6.504084e-01 2.299861e-02 5.531812e-02 5.607017e-02 7.890697e-02 1.101407e-01 1.205609e-01 1.338791e-01 1.528832e-01 1.345122e-01 1.261365e-01 1.250348e-01 1.190797e-01 1.063505e-01
<GCONST> 8.592668e+01
<MIXTURE> 2 5.000000e-01
<MEAN> 39
 2.160888e+00 -1.738109e+01 -9.288774e+00 -7.848474e+00 -7.308233e+00 5.704550e+00 -3.121445e+00 -5.527257e+00 -4.531339e+00 -3.821269e+00 -5.760500e+00 -7.397368e+00 -8.974946e+00 -1.123104e-01 -5.736182e-02 1.784162e-01 4.764850e-01 7.340734e-02 -4.227331e-01 -2.934766e-01 3.245704e-01 3.356412e-01 -6.344111e-02 -2.489797e-01 -1.435742e-01 1.529021e-01 2.542533e-02 9.622285e-02 6.118580e-02 1.703779e-02 -1.364771e-01 -1.634235e-01 -6.373179e-02 1.186823e-01 5.155130e-02 -2.067657e-02 2.611147e-02 1.581030e-02 2.767308e-03
<VARIANCE> 39
 1.330476e+01 3.052460e+01 3.039182e+01 4.235331e+01 4.789899e+01 7.816711e+01 6.962340e+01 6.962862e+01 7.484525e+01 7.679267e+01 5.164460e+01 7.087557e+01 4.393782e+01 1.408290e-01 3.565558e-01 3.614484e-01 5.632614e-01 8.809614e-01 1.055319e+00 9.852400e-01 1.284205e+00 1.027870e+00 8.452851e-01 7.678423e-01 8.205053e-01 6.504084e-01 2.299861e-02 5.531812e-02 5.607017e-02 7.890697e-02 1.101407e-01 1.205609e-01 1.338791e-01 1.528832e-01 1.345122e-01 1.261365e-01 1.250348e-01 1.190797e-01 1.063505e-01
<GCONST> 8.592668e+01
<STATE> 5
<NUMMIXES> 2
<MIXTURE> 1 5.000000e-01
<MEAN> 39
 1.222327e+00 -1.427330e+01 -3.883203e+00 -3.073566e+00 -1.340717e+01 -5.302114e+00 -8.466009e+00 2.014719e+00 -1.258543e+00 -5.395748e+00 -6.753100e+00 -8.009726e+00 -7.508429e+00 6.020280e-02 1.388002e+00 1.106697e+00 8.797921e-01 -5.365254e-01 -1.432904e+00 -1.005688e+00 -2.510042e-02 -7.716764e-02 7.821862e-02 5.302910e-01 4.410605e-01 1.097837e-01 -1.385390e-01 3.637884e-01 6.675600e-02 2.135936e-01 5.137519e-01 2.958662e-01 6.843535e-02 -4.506476e-01 -2.593399e-01 -2.682218e-03 7.537528e-02 1.236284e-01 4.824831e-02
<VARIANCE> 39
 1.363720e+01 3.971956e+01 4.191930e+01 4.212070e+01 5.976948e+01 7.692912e+01 5.183785e+01 5.334944e+01 9.910428e+01 8.583321e+01 5.845565e+01 6.485326e+01 3.938818e+01 4.160672e-01 1.390287e+00 1.032296e+00 1.588751e+00 3.676415e+00 2.013751e+00 2.462764e+00 4.321580e+00 2.530454e+00 1.962323e+00 1.858826e+00 1.810525e+00 1.698054e+00 2.085847e-01 2.098553e-01 1.902149e-01 2.854375e-01 6.184772e-01 4.397434e-01 4.825937e-01 4.816175e-01 4.074064e-01 3.669585e-01 3.609200e-01 3.318290e-01 2.723872e-01
<GCONST> 1.163022e+02
<MIXTURE> 2 5.000000e-01
<MEAN> 39
 1.222327e+00 -1.427330e+01 -3.883203e+00 -3.073566e+00 -1.340717e+01 -5.302114e+00 -8.466009e+00 2.014719e+00 -1.258543e+00 -5.395748e+00 -6.753100e+00 -8.009726e+00 -7.508429e+00 6.020280e-02 1.388002e+00 1.106697e+00 8.797921e-01 -5.365254e-01 -1.432904e+00 -1.005688e+00 -2.510042e-02 -7.716764e-02 7.821862e-02 5.302910e-01 4.410605e-01 1.097837e-01 -1.385390e-01 3.637884e-01 6.675600e-02 2.135936e-01 5.137519e-01 2.958662e-01 6.843535e-02 -4.506476e-01 -2.593399e-01 -2.682218e-03 7.537528e-02 1.236284e-01 4.824831e-02
<VARIANCE> 39
 1.363720e+01 3.971956e+01 4.191930e+01 4.212070e+01 5.976948e+01 7.692912e+01 5.183785e+01 5.334944e+01 9.910428e+01 8.583321e+01 5.845565e+01 6.485326e+01 3.938818e+01 4.160672e-01 1.390287e+00 1.032296e+00 1.588751e+00 3.676415e+00 2.013751e+00 2.462764e+00 4.321580e+00 2.530454e+00 1.962323e+00 1.858826e+00 1.810525e+00 1.698054e+00 2.085847e-01 2.098553e-01 1.902149e-01 2.854375e-01 6.184772e-01 4.397434e-01 4.825937e-01 4.816175e-01 4.074064e-01 3.669585e-01 3.609200e-01 3.318290e-01 2.723872e-01
<GCONST> 1.163022e+02
<STATE> 6
<NUMMIXES> 2
<MIXTURE> 1 5.000000e-01
<MEAN> 39
 -6.952518e+00 -2.322119e+00 9.950255e-01 4.912646e+00 -4.009273e+00 -3.257930e+00 -7.128860e+00 -1.956072e+00 -2.699027e+00 -3.976679e+00 -3.285695e+00 -3.136273e+00 -4.348349e+00 -2.042652e+00 9.821777e-01 1.956797e-01 4.892212e-01 1.304884e+00 9.182872e-01 1.134810e+00 8.747751e-02 -4.316172e-02 1.825037e-01 2.603011e-01 5.353603e-01 7.013800e-01 -7.828305e-02 -4.187354e-01 -2.561155e-01 -4.015945e-01 -3.512317e-01 -1.523329e-02 1.500995e-01 3.325508e-01 2.288397e-01 1.302931e-01 4.399933e-02 -2.113465e-02 1.846200e-02
<VARIANCE> 39
 7.648274e+01 3.677423e+01 3.221375e+01 3.120908e+01 4.284625e+01 4.805131e+01 5.457274e+01 4.733139e+01 5.546397e+01 4.275039e+01 3.902315e+01 4.236758e+01 2.676810e+01 6.920307e+00 6.279288e+00 3.560051e+00 4.539490e+00 5.725064e+00 4.424376e+00 4.400540e+00 4.856888e+00 5.145463e+00 3.881148e+00 3.585797e+00 3.912628e+00 2.418343e+00 1.195179e+00 9.048549e-01 5.784082e-01 6.564216e-01 8.813822e-01 8.338437e-01 9.503105e-01 8.481713e-01 7.698427e-01 6.087325e-01 6.342607e-01 6.021056e-01 4.170581e-01
<GCONST> 1.358458e+02
<MIXTURE> 2 5.000000e-01
<MEAN> 39
 -6.952518e+00 -2.322119e+00 9.950255e-01 4.912646e+00 -4.009273e+00 -3.257930e+00 -7.128860e+00 -1.956072e+00 -2.699027e+00 -3.976679e+00 -3.285695e+00 -3.136273e+00 -4.348349e+00 -2.042652e+00 9.821777e-01 1.956797e-01 4.892212e-01 1.304884e+00 9.182872e-01 1.134810e+00 8.747751e-02 -4.316172e-02 1.825037e-01 2.603011e-01 5.353603e-01 7.013800e-01 -7.828305e-02 -4.187354e-01 -2.561155e-01 -4.015945e-01 -3.512317e-01 -1.523329e-02 1.500995e-01 3.325508e-01 2.288397e-01 1.302931e-01 4.399933e-02 -2.113465e-02 1.846200e-02
<VARIANCE> 39
 7.648274e+01 3.677423e+01 3.221375e+01 3.120908e+01 4.284625e+01 4.805131e+01 5.457274e+01 4.733139e+01 5.546397e+01 4.275039e+01 3.902315e+01 4.236758e+01 2.676810e+01 6.920307e+00 6.279288e+00 3.560051e+00 4.539490e+00 5.725064e+00 4.424376e+00 4.400540e+00 4.856888e+00 5.145463e+00 3.881148e+00 3.585797e+00 3.912628e+00 2.418343e+00 1.195179e+00 9.048549e-01 5.784082e-01 6.564216e-01 8.813822e-01 8.338437e-01 9.503105e-01 8.481713e-01 7.698427e-01 6.087325e-01 6.342607e-01 6.021056e-01 4.170581e-01
<GCONST> 1.358458e+02
<TRANSP> 7
 0.000000e+00 1.000000e+00 0.000000e+00 0.000000e+00 0.000000e+00 0.000000e+00 0.000000e+00
 0.000000e+00 8.880593e-01 1.119407e-01 0.000000e+00 0.000000e+00 0.000000e+00 0.000000e+00
 0.000000e+00 0.000000e+00 7.188724e-01 2.811276e-01 0.000000e+00 0.000000e+00 0.000000e+00
 0.000000e+00 0.000000e+00 0.000000e+00 9.234045e-01 7.659550e-02 0.000000e+00 0.000000e+00
 0.000000e+00 0.000000e+00 0.000000e+00 0.000000e+00 8.397623e-01 1.602378e-01 0.000000e+00
 0.000000e+00 0.000000e+00 0.000000e+00 0.000000e+00 0.000000e+00 8.591548e-01 1.408451e-01
 0.000000e+00 0.000000e+00 0.000000e+00 0.000000e+00 0.000000e+00 0.000000e+00 0.000000e+00
<ENDHMM>
~h "hmm_word_6"
<BEGINHMM>
<NUMSTATES> 7
<STATE> 2
<NUMMIXES> 2
<MIXTURE> 1 5.000000e-01
<MEAN> 39
 -2.864923e+01 2.334302e+00 -3.602715e+00 -2.132390e+00 -1.058412e+00 -2.449105e+00 -2.452650e+00 8.624660e-01 5.301756e-01 -1.469479e+00 2.800117e-01 4.832976e-01 -3.151619e-01 6.646770e-01 -2.458781e-01 1.574880e-01 -1.355870e-01 -5.597417e-01 -5.812723e-01 -4.477522e-01 -2.895732e-01 -5.169467e-02 -1.366283e-02 -4.305248e-02 -1.410785e-01 -3.441706e-02 8.898832e-01 -2.226362e-01 2.722379e-01 1.570850e-01 -3.969701e-01 -2.842775e-01 -3.950229e-01 -2.367519e-01 -1.866590e-01 -1.291736e-01 -9.386731e-02 -1.590988e-01 -1.255333e-01
<VARIANCE> 39
 3.555804e+01 2.533519e+01 6.850737e+01 4.922929e+01 3.252138e+01 3.609711e+01 4.019424e+01 2.760507e+01 2.549685e+01 1.954703e+01 1.780480e+01 1.793108e+01 1.313881e+01 1.310370e+01 1.919055e+00 4.234357e+00 3.417117e+00 3.026290e+00 3.812440e+00 3.923289e+00 2.998766e+00 2.721392e+00 2.275391e+00 2.097106e+00 2.153180e+00 1.556328e+00 6.797284e-01 4.137129e-01 4.925490e-01 4.645841e-01 5.573568e-01 5.230188e-01 6.577384e-01 5.494087e-01 5.057575e-01 4.192959e-01 3.997369e-01 4.284350e-01 2.823305e-01
<GCONST> 1.202433e+02
<MIXTURE> 2 5.000000e-01
<MEAN> 39
 -2.864923e+01 2.334302e+00 -3.602715e+00 -2.132390e+00 -1.058412e+00 -2.449105e+00 -2.452650e+00 8.624660e-01 5.301756e-01 -1.469479e+00 2.800117e-01 4.832976e-01 -3.151619e-01 6.646770e-01 -2.458781e-01 1.574880e-01 -1.355870e-01 -5.597417e-01 -5.812723e-01 -4.477522e-01 -2.895732e-01 -5.169467e-02 -1.366283e-02 -4.305248e-02 -1.410785e-01 -3.441706e-02 8.898832e-01 -2.226362e-01 2.722379e-01 1.570850e-01 -3.969701e-01 -2.842775e-01 -3.950229e-01 -2.367519e-01 -1.866590e-01 -1.291736e-01 -9.386731e-02 -1.590988e-01 -1.255333e-01
<VARIANCE> 39
 3.555804e+01 2.533519e+01 6.850737e+01 4.922929e+01 3.252138e+01 3.609711e+01 4.019424e+01 2.760507e+01 2.549685e+01 1.954703e+01 1.780480e+01 1.793108e+01 1.313881e+01 1.310370e+01 1.919055e+00 4.234357e+00 3.417117e+00 3.026290e+00 3.812440e+00 3.923289e+00 2.998766e+00 2.721392e+00 2.275391e+00 2.097106e+00 2.153180e+00 1.556328e+00 6.797284e-01 4.137129e-01 4.925490e-01 4.645841e-01 5.573568e-01 5.230188e-01 6.577384e-01 5.494087e-01 5.057575e-01 4.192959e-01 3.997369e-01 4.284350e-01 2.823305e-01
<GCONST> 1.202433e+02
<STATE> 3
<NUMMIXES> 2
<MIXTURE> 1 5.000000e-01
<MEAN> 39
 -2.434702e+00 -9.442709e+00 5.751857e+00 7.855836e-02 -1.850144e+01 -1.399630e+01 -1.448595e+01 -2.008316e+00 -4.131716e+00 -4.907077e+00 -6.855533e-01 -3.574498e+00 -4.024054e+00 1.182748e+00 -5.941812e-01 6.406496e-01 7.834085e-01 -7.288092e-01 -6.308676e-01 -5.990525e-01 5.384575e-01 -4.225038e-01 -6.305807e-01 2.456053e-01 2.040370e-01 -2.088571e-01 -8.509901e-01 5.918788e-01 -2.736717e-01 1.116381e-01 7.406746e-01 3.849105e-01 4.642118e-01 1.548179e-01 9.503647e-02 4.646144e-02 2.661836e-02 2.105965e-01 1.528391e-01
<VARIANCE> 39
 1.819516e+01 4.104470e+01 3.039317e+01 5.643684e+01 6.215477e+01 5.732621e+01 4.993675e+01 6.661250e+01 1.286062e+02 5.952003e+01 5.125006e+01 6.983035e+01 2.952361e+01 7.436438e+00 6.421186e+00 2.160927e+00 3.821337e+00 7.483010e+00 3.389984e+00 5.306032e+00 4.453116e+00 4.469616e+00 4.028337e+00 3.118706e+00 3.920438e+00 2.054637e+00 7.533047e-01 6.997143e-01 3.350163e-01 4.848685e-01 6.708382e-01 6.663187e-01 7.273117e-01 8.902631e-01 8.516084e-01 7.056894e-01 6.001189e-01 6.225707e-01 3.509271e-01
<GCONST> 1.347883e+02
<MIXTURE> 2 5.000000e-01
<MEAN> 39
 -2.434702e+00 -9.442709e+00 5.751857e+00 7.855836e-02 -1.850144e+01 -1.399630e+01 -1.448595e+01 -2.008316e+00 -4.131716e+00 -4.907077e+00 -6.855533e-01 -3.574498e+00 -4.024054e+00 1.182748e+00 -5.941812e-01 6.406496e-01 7.834085e-01 -7.288092e-01 -6.308676e-01 -5.990525e-01 5.384575e-01 -4.225038e-01 -6.305807e-01 2.456053e-01 2.040370e-01 -2.088571e-01 -8.509901e-01 5.918788e-01 -2.736717e-01 1.116381e-01 7.406746e-01 3.849105e-01 4.642118e-01 1.548179e-01 9.503647e-02 4.646144e-02 2.661836e-02 2.105965e-01 1.528391e-01
<VARIANCE> 39
 1.819516e+01 4.104470e+01 3.039317e+01 5.643684e+01 6.215477e+01 5.732621e+01 4.993675e+01 6.661250e+01 1.286062e+02 5.952003e+01 5.125006e+01 6.983035e+01 2.952361e+01 7.436438e+00 6.421186e+00 2.160927e+00 3.821337e+00 7.483010e+00 3.389984e+00 5.306032e+00 4.453116e+00 4.469616e+00 4.028337e+00 3.118706e+00 3.920438e+00 2.054637e+00 7.533047e-01 6.997143e-01 3.350163e-01 4.848685e-01 6.708382e-01 6.663187e-01 7.273117e-01 8.902631e-01 8.516084e-01 7.056894e-01 6.001189e-01 6.225707e-01 3.509271e-01
<GCONST> 1.347883e+02
<STATE> 4
<NUMMIXES> 2
<MIXTURE> 1 5.000000e-01
<MEAN> 39
 -7.185275e+00 1.667732e+00 5.986874e+00 8.997327e+00 -6.654939e+00 -1.177674e+01 -1.182302e+01 -5.719061e-01 -5.433725e+00 -8.124736e+00 -4.786454e-01 1.356167e+00 -2.169595e+00 -2.557416e+00 2.197626e+00 -1.928647e+00 -2.599476e-01 3.520893e+00 2.840617e+00 1.904739e+00 -7.546612e-01 1.227246e+00 1.911216e+00 -1.808845e-01 6.163338e-01 1.177410e+00 -2.127015e-01 -1.190618e+00 -6.823537e-01 -9.251560e-01 -4.452361e-01 4.133466e-01 2.018102e-01 5.822062e-02 5.395857e-01 6.881796e-01 1.809460e-01 -2.590339e-01 -9.740049e-03
<VARIANCE> 39
 2.689874e+01 4.512927e+01 2.918214e+01 3.597658e+01 5.817430e+01 5.182727e+01 5.271359e+01 5.068565e+01 9.482491e+01 5.794133e+01 4.204688e+01 5.111870e+01 3.630461e+01 1.914745e+00 9.149473e+00 4.599521e+00 5.809300e+00 5.569219e+00 4.560596e+00 4.859404e+00 5.876242e+00 1.204717e+01 6.883896e+00 5.505158e+00 7.333607e+00 3.308388e+00 6.020531e-01 1.400489e+00 6.848503e-01 6.371883e-01 9.854438e-01 1.111053e+00 9.864730e-01 1.176502e+00 1.305790e+00 1.343695e+00 9.264088e-01 9.153715e-01 7.843370e-01
<GCONST> 1.429555e+02
<MIXTURE> 2 5.000000e-01
<MEAN> 39
 -7.185275e+00 1.667732e+00 5.986874e+00 8.997327e+00 -6.654939e+00 -1.177674e+01 -1.182302e+01 -5.719061e-01 -5.433725e+00 -8.124736e+00 -4.786454e-01 1.356167e+00 -2.169595e+00 -2.557416e+00 2.197626e+00 -1.928647e+00 -2.599476e-01 3.520893e+00 2.840617e+00 1.904739e+00 -7.546612e-01 1.227246e+00 1.911216e+00 -1.808845e-01 6.163338e-01 1.177410e+00 -2.127015e-01 -1.190618e+00 -6.823537e-01 -9.251560e-01 -4.452361e-01 4.133466e-01 2.018102e-01 5.822062e-02 5.395857e-01 6.881796e-01 1.809460e-01 -2.590339e-01 -9.740049e-03
<VARIANCE> 39
 2.689874e+01 4.512927e+01 2.918214e+01 3.597658e+01 5.817430e+01 5.182727e+01 5.271359e+01 5.068565e+01 9.482491e+01 5.794133e+01 4.204688e+01 5.111870e+01 3.630461e+01 1.914745e+00 9.149473e+00 4.599521e+00 5.809300e+00 5.569219e+00 4.560596e+00 4.859404e+00 5.876242e+00 1.204717e+01 6.883896e+00 5.505158e+00 7.333607e+00 3.308388e+00 6.020531e-01 1.400489e+00 6.848503e-01 6.371883e-01 9.854438e-01 1.111053e+00 9.864730e-01 1.176502e+00 1.305790e+00 1.343695e+00 9.264088e-01 9.153715e-01 7.843370e-01
<GCONST> 1.429555e+02
<STATE> 5
<NUMMIXES> 2
<MIXTURE> 1 5.000000e-01
<MEAN> 39
 -1.637293e+01 -3.048468e+00 -5.364854e+00 2.116592e+00 2.729944e-01 -2.853620e+00 -6.220579e+00 -7.598137e-01 2.139158e+00 9.213959e-01 7.592440e-01 4.816311e-01 -4.384743e-01 -1.751671e+00 -8.633093e-01 -8.785809e-01 -7.146150e-01 3.816296e-01 -1.240164e-01 9.942824e-02 3.678574e-01 8.932115e-01 3.664657e-01 -1.259849e-01 -3.321370e-01 -2.950481e-02 -1.642088e-01 3.105458e-01 5.828110e-01 1.565999e-01 -3.577878e-01 -4.352197e-01 -1.136458e-01 1.489809e-01 -2.562736e-01 -4.114811e-01 -1.192038e-01 2.628914e-03 -3.283493e-02
<VARIANCE> 39
 4.810138e+01 4.696261e+01 6.199874e+01 2.893097e+01 2.724112e+01 4.025383e+01 4.315624e+01 3.314883e+01 2.734371e+01 2.449454e+01 1.976300e+01 1.950623e+01 1.511934e+01 9.330023e+00 6.261517e+00 9.091213e+00 3.867819e+00 3.259348e+00 5.098969e+00 5.168687e+00 4.217775e+00 3.679662e+00 3.516006e+00 2.590811e+00 2.524356e+00 2.219408e+00 1.487534e+00 1.346910e+00 1.471853e+00 6.032052e-01 7.164258e-01 1.051634e+00 1.166541e+00 8.356098e-01 8.159761e-01 6.895068e-01 5.295075e-01 5.529366e-01 4.737907e-01
<GCONST> 1.328074e+02
<MIXTURE> 2 5.000000e-01
<MEAN> 39
 -1.637293e+01 -3.048468e+00 -5.364854e+00 2.116592e+00 2.729944e-01 -2.853620e+00 -6.220579e+00 -7.598137e-01 2.139158e+00 9.213959e-01 7.592440e-01 4.816311e-01 -4.384743e-01 -1.751671e+00 -8.633093e-01 -8.785809e-01 -7.146150e-01 3.816296e-01 -1.240164e-01 9.942824e-02 3.678574e-01 8.932115e-01 3.664657e-01 -1.259849e-01 -3.321370e-01 -2.950481e-02 -1.642088e-01 3.105458e-01 5.828110e-01 1.565999e-01 -3.577878e-01 -4.352197e-01 -1.136458e-01 1.489809e-01 -2.562736e-01 -4.114811e-01 -1.192038e-01 2.628914e-03 -3.283493e-02
<VARIANCE> 39
 4.810138e+01 4.696261e+01 6.199874e+01 2.893097e+01 2.724112e+01 4.025383e+01 4.315624e+01 3.314883e+01 2.734371e+01 2.449454e+01 1.976300e+01 1.950623e+01 1.511934e+01 9.330023e+00 6.261517e+00 9.091213e+00 3.867819e+00 3.259348e+00 5.098969e+00 5.168687e+00 4.217775e+00 3.679662e+00 3.516006e+00 2.590811e+00 2.524356e+00 2.219408e+00 1.487534e+00 1.346910e+00 1.471853e+00 6.032052e-01 7.164258e-01 1.051634e+00 1.166541e+00 8.356098e-01 8.159761e-01 6.895068e-01 5.295075e-01 5.529366e-01 4.737907e-01
<GCONST> 1.328074e+02
<STATE> 6
<NUMMIXES> 2
<MIXTURE> 1 5.000000e-01
<MEAN> 39
 -2.602307e+01 -9.343296e-01 -3.734717e+00 -8.214402e-01 -7.543306e-01 -3.324333e+00 -3.575182e+00 1.661587e+00 2.449201e+00 -1.128151e+00 -3.118967e-01 3.622498e-02 -2.451798e-01 4.466034e-01 2.947665e-01 2.115709e-01 -4.199751e-03 -1.599817e-01 3.660625e-01 2.887956e-01 -3.014122e-02 -3.279920e-01 -1.338994e-01 -1.540131e-03 -1.609904e-02 -8.185561e-02 4.307414e-01 -7.492818e-02 -6.883577e-02 5.696143e-02 -1.270326e-02 1.772442e-02 -9.104413e-02 -1.207459e-01 -7.712471e-02 3.002930e-02 2.486118e-02 -3.771378e-02 -5.386140e-02
<VARIANCE> 39
 5.948049e+01 2.986453e+01 5.257557e+01 4.343122e+01 2.993219e+01 4.095081e+01 4.874348e+01 2.805102e+01 2.736711e+01 2.400484e+01 2.042455e+01 2.064006e+01 1.520727e+01 4.668313e+00 2.015158e+00 1.885861e+00 1.994405e+00 1.807367e+00 2.321886e+00 2.457169e+00 2.195683e+00 2.256421e+00 2.070606e+00 1.835279e+00 1.586343e+00 1.369907e+00 6.811703e-01 3.307898e-01 3.736813e-01 3.520639e-01 3.602796e-01 5.005834e-01 4.668209e-01 4.456136e-01 4.525990e-01 4.058940e-01 3.705873e-01 3.168217e-01 2.785348e-01
<GCONST> 1.141730e+02
<MIXTURE> 2 5.000000e-01
<MEAN> 39
 -2.602307e+01 -9.343296e-01 -3.734717e+00 -8.214402e-01 -7.543306e-01 -3.324333e+00 -3.575182e+00 1.661587e+00 2.449201e+00 -1.128151e+00 -3.118967e-01 3.622498e-02 -2.451798e-01 4.466034e-01 2.947665e-01 2.115709e-01 -4.199751e-03 -1.599817e-01 3.660625e-01 2.887956e-01 -3.014122e-02 -3.279920e-01 -1.338994e-01 -1.540131e-03 -1.609904e-02 -8.185561e-02 4.307414e-01 -7.492818e-02 -6.883577e-02 5.696143e-02 -1.270326e-02 1.772442e-02 -9.104413e-02 -1.207459e-01 -7.712471e-02 3.002930e-02 2.486118e-02 -3.771378e-02 -5.386140e-02
<VARIANCE> 39
 5.948049e+01 2.986453e+01 5.257557e+01 4.343122e+01 2.993219e+01 4.095081e+01 4.874348e+01 2.805102e+01 2.736711e+01 2.400484e+01 2.042455e+01 2.064006e+01 1.520727e+01 4.668313e+00 2.015158e+00 1.885861e+00 1.994405e+00 1.807367e+00 2.321886e+00 2.457169e+00 2.195683e+00 2.256421e+00 2.070606e+00 1.835279e+00 1.586343e+00 1.369907e+00 6.811703e-01 3.307898e-01 3.736813e-01 3.520639e-01 3.602796e-01 5.005834e-01 4.668209e-01 4.456136e-01 4.525990e-01 4.058940e-01 3.705873e-01 3.168217e-01 2.785348e-01
<GCONST> 1.141730e+02
<TRANSP> 7
 0.000000e+00 1.000000e+00 0.000000e+00 0.000000e+00 0.000000e+00 0.000000e+00 0.000000e+00
 0.000000e+00 9.117534e-01 8.824658e-02 0.000000e+00 0.000000e+00 0.000000e+00 0.000000e+00
 0.000000e+00 0.000000e+00 8.944016e-01 1.055984e-01 0.000000e+00 0.000000e+00 0.000000e+00
 0.000000e+00 0.000000e+00 0.000000e+00 7.171628e-01 2.828372e-01 0.000000e+00 0.000000e+00
 0.000000e+00 0.000000e+00 0.000000e+00 0.000000e+00 8.524148e-01 1.475852e-01 0.000000e+00
 0.000000e+00 0.000000e+00 0.000000e+00 0.000000e+00 0.000000e+00 9.220517e-01 7.794835e-02
 0.000000e+00 0.000000e+00 0.000000e+00 0.000000e+00 0.000000e+00 0.000000e+00 0.000000e+00
<ENDHMM>
~h "hmm_word_7"
<BEGINHMM>
<NUMSTATES> 7
<STATE> 2
<NUMMIXES> 2
<MIXTURE> 1 5.000000e-01
<MEAN> 39
 -2.858066e+01 2.233514e+00 -3.682061e+00 -2.280400e+00 -9.838805e-01 -1.840932e+00 -2.676344e+00 9.368046e-01 6.970752e-01 -1.291880e+00 3.792540e-01 3.849897e-01 -3.938890e-01 6.504515e-01 -2.910450e-01 -8.098399e-02 -2.685492e-01 -5.522366e-01 -4.148539e-01 -3.734103e-01 -1.451565e-01 8.478437e-02 1.897572e-01 5.948917e-03 -1.835028e-01 -2.714648e-02 1.066728e+00 -2.612185e-01 2.062666e-01 8.979151e-02 -4.335212e-01 -2.526947e-01 -3.941348e-01 -2.289527e-01 -1.664722e-01 -8.353249e-02 -1.375291e-01 -2.523385e-01 -1.810257e-01
<VARIANCE> 39
 3.290636e+01 2.619217e+01 7.002083e+01 5.283847e+01 3.356824e+01 3.448089e+01 3.944720e+01 2.722088e+01 2.557393e+01 2.038882e+01 1.809949e+01 1.801659e+01 1.261275e+01 1.496708e+01 2.010380e+00 3.809279e+00 3.449729e+00 3.045283e+00 3.586363e+00 3.776248e+00 2.938323e+00 2.621453e+00 2.363874e+00 2.494364e+00 2.435450e+00 1.784733e+00 7.204855e-01 4.365160e-01 5.285417e-01 5.295032e-01 5.775950e-01 5.644054e-01 6.541582e-01 5.735667e-01 5.144020e-01 4.609699e-01 4.643815e-01 4.750334e-01 3.261897e-01
<GCONST> 1.216462e+02
<MIXTURE> 2 5.000000e-01
<MEAN> 39
 -2.858066e+01 2.233514e+00 -3.682061e+00 -2.280400e+00 -9.838805e-01 -1.840932e+00 -2.676344e+00 9.368046e-01 6.970752e-01 -1.291880e+00 3.792540e-01 3.849897e-01 -3.938890e-01 6.504515e-01 -2.910450e-01 -8.098399e-02 -2.685492e-01 -5.522366e-01 -4.148539e-01 -3.734103e-01 -1.451565e-01 8.478437e-02 1.897572e-01 5.948917e-03 -1.835028e-01 -2.714648e-02 1.066728e+00 -2.612185e-01 2.062666e-01 8.979151e-02 -4.335212e-01 -2.526947e-01 -3.941348e-01 -2.289527e-01 -1.664722e-01 -8.353249e-02 -1.375291e-01 -2.523385e-01 -1.810257e-01
<VARIANCE> 39
 3.290636e+01 2.619217e+01 7.002083e+01 5.283847e+01 3.356824e+01 3.448089e+01 3.944720e+01 2.722088e+01 2.557393e+01 2.038882e+01 1.809949e+01 1.801659e+01 1.261275e+01 1.496708e+01 2.010380e+00 3.809279e+00 3.449729e+00 3.045283e+00 3.586363e+00 3.776248e+00 2.938323e+00 2.621453e+00 2.363874e+00 2.494364e+00 2.435450e+00 1.784733e+00 7.204855e-01 4.365160e-01 5.285417e-01 5.295032e-01 5.775950e-01 5.644054e-01 6.541582e-01 5.735667e-01 5.144020e-01 4.609699e-01 4.643815e-01 4.750334e-01 3.261897e-01
<GCONST> 1.216462e+02
<STATE> 3
<NUMMIXES> 2
<MIXTURE> 1 5.000000e-01
<MEAN> 39
 -2.470602e+00 -6.453191e+00 6.548714e-02 -2.757001e+00 -1.417054e+01 -9.714849e+00 -1.346482e+01 -3.883423e+00 -1.041447e+00 -1.122373e+00 -2.627092e+00 -6.316102e+00 -4.682825e+00 4.195695e+00 -3.413504e+00 -5.530966e-02 -8.713174e-01 -2.916555e+00 -3.458121e-01 -1.434176e+00 3.041874e-01 4.993170e-01 6.883350e-02 -8.305036e-01 -1.484791e+00 -1.212060e+00 -1.716574e+00 3.353211e-02 -5.241083e-01 -1.894960e-01 7.059945e-01 7.738670e-01 1.019784e+00 6.578555e-01 2.786478e-01 -6.637518e-02 1.493659e-02 2.800024e-01 1.056290e-01
<VARIANCE> 39
 3.158904e+01 5.227489e+01 2.794579e+01 3.448896e+01 5.806824e+01 6.735988e+01 4.180360e+01 5.413853e+01 5.359314e+01 5.256966e+01 6.408880e+01 4.613477e+01 3.649921e+01 1.050346e+01 2.414180e+00 3.157893e+00 5.079441e+00 4.686547e+00 6.090032e+00 7.814989e+00 7.463558e+00 5.072975e+00 4.480321e+00 4.407048e+00 5.550757e+00 2.944818e+00 5.279484e-01 7.669269e-01 3.467876e-01 5.659625e-01 7.423618e-01 7.262385e-01 6.667144e-01 7.528418e-01 5.231163e-01 4.178763e-01 5.145290e-01 5.497631e-01 3.785673e-01
<GCONST> 1.347186e+02
<MIXTURE> 2 5.000000e-01
<MEAN> 39
 -2.470602e+00 -6.453191e+00 6.548714e-02 -2.757001e+00 -1.417054e+01 -9.714849e+00 -1.346482e+01 -3.883423e+00 -1.041447e+00 -1.122373e+00 -2.627092e+00 -6.316102e+00 -4.682825e+00 4.195695e+00 -3.413504e+00 -5.530966e-02 -8.713174e-01 -2.916555e+00 -3.458121e-01 -1.434176e+00 3.041874e-01 4.993170e-01 6.883350e-02 -8.305036e-01 -1.484791e+00 -1.212060e+00 -1.716574e+00 3.353211e-02 -5.241083e-01 -1.894960e-01 7.059945e-01 7.738670e-01 1.019784e+00 6.578555e-01 2.786478e-01 -6.637518e-02 1.493659e-02 2.800024e-01 1.056290e-01
<VARIANCE> 39
 3.158904e+01 5.227489e+01 2.794579e+01 3.448896e+01 5.806824e+01 6.735988e+01 4.180360e+01 5.413853e+01 5.359314e+01 5.256966e+01 6.408880e+01 4.613477e+01 3.649921e+01 1.050346e+01 2.414180e+00 3.157893e+00 5.079441e+00 4.686547e+00 6.090032e+00 7.814989e+00 7.463558e+00 5.072975e+00 4.480321e+00 4.407048e+00 5.550757e+00 2.944818e+00 5.279484e-01 7.669269e-01 3.467876e-01 5.659625e-01 7.423618e-01 7.262385e-01 6.667144e-01 7.528418e-01 5.231163e-01 4.178763e-01 5.145290e-01 5.497631e-01 3.785673e-01
<GCONST> 1.347186e+02
<STATE> 4
<NUMMIXES> 2
<MIXTURE> 1 5.000000e-01
<MEAN> 39
 2.414021e-01 -1.516947e+01 -2.957536e+00 -5.830307e+00 -1.639250e+01 -5.739587e+00 -1.009711e+01 9.808377e-01 5.955349e-01 -3.007493e+00 -6.106158e+00 -9.625682e+00 -7.365654e+00 4.077830e-01 -2.578360e-01 -2.724485e-01 2.361280e-02 4.349018e-01 4.666005e-01 1.173892e-01 -2.079794e-01 -8.523827e-02 -4.946919e-02 1.018356e-01 1.026994e-03 -3.831571e-01 -4.075612e-02 5.558651e-01 1.511171e-01 3.067008e-01 3.297796e-01 -9.502494e-02 -2.114411e-01 -4.857737e-01 -2.814704e-01 3.340866e-02 2.819945e-01 2.712835e-01 9.233905e-02
<VARIANCE> 39
 1.324659e+01 2.397705e+01 2.633133e+01 4.047216e+01 4.003515e+01 5.840352e+01 4.922001e+01 6.177655e+01 8.396746e+01 1.014618e+02 8.112661e+01 6.398627e+01 4.704466e+01 2.800835e-01 9.366850e-01 5.868284e-01 7.658182e-01 9.272446e-01 1.269966e+00 2.099550e+00 2.219505e+00 1.412600e+00 1.477415e+00 1.576212e+00 1.526124e+00 1.015580e+00 1.318102e-01 1.631361e-01 1.219525e-01 2.047321e-01 2.882748e-01 2.635645e-01 3.342032e-01 3.443667e-01 3.380812e-01 3.362468e-01 2.490425e-01 2.543465e-01 2.222470e-01
<GCONST> 1.041291e+02
<MIXTURE> 2 5.000000e-01
<MEAN> 39
 2.414021e-01 -1.516947e+01 -2.957536e+00 -5.830307e+00 -1.639250e+01 -5.739587e+00 -1.009711e+01 9.808377e-01 5.955349e-01 -3.007493e+00 -6.106158e+00 -9.625682e+00 -7.365654e+00 4.077830e-01 -2.578360e-01 -2.724485e-01 2.361280e-02 4.349018e-01 4.666005e-01 1.173892e-01 -2.079794e-01 -8.523827e-02 -4.946919e-02 1.018356e-01 1.026994e-03 -3.831571e-01 -4.075612e-02 5.558651e-01 1.511171e-01 3.067008e-01 3.297796e-01 -9.502494e-02 -2.114411e-01 -4.857737e-01 -2.814704e-01 3.340866e-02 2.819945e-01 2.712835e-01 9.233905e-02
<VARIANCE> 39
 1.324659e+01 2.397705e+01 2.633133e+01 4.047216e+01 4.003515e+01 5.840352e+01 4.922001e+01 6.177655e+01 8.396746e+01 1.014618e+02 8.112661e+01 6.398627e+01 4.704466e+01 2.800835e-01 9.366850e-01 5.868284e-01 7.658182e-01 9.272446e-01 1.269966e+00 2.099550e+00 2.219505e+00 1.412600e+00 1.477415e+00 1.576212e+00 1.526124e+00 1.015580e+00 1.318102e-01 1.631361e-01 1.219525e-01 2.047321e-01 2.882748e-01 2.635645e-01 3.342032e-01 3.443667e-01 3.380812e-01 3.362468e-01 2.490425e-01 2.543465e-01 2.222470e-01
<GCONST> 1.041291e+02
<STATE> 5
<NUMMIXES> 2
<MIXTURE> 1 5.000000e-01
<MEAN> 39
 2.358245e+00 -7.801247e+00 -9.619551e-01 1.408138e-01 -1.082525e+01 -3.251721e+00 -1.270358e+01 -6.522863e+00 -3.386516e+00 -4.456307e+00 -3.111333e+00 -5.389268e+00 -7.997979e+00 1.044641e-02 9.017459e-01 4.665731e-01 7.138208e-01 2.670492e-01 -1.235964e-01 1.417219e-01 -2.243644e-01 -7.398990e-01 -5.633991e-01 -4.594897e-02 -4.242614e-03 2.646550e-01 -6.103480e-02 4.322653e-02 7.915208e-02 2.960782e-02 -4.556321e-02 -1.300472e-01 1.979318e-01 1.414584e-01 -1.357663e-01 -4.675161e-02 -3.696366e-02 -1.199639e-01 7.845848e-02
<VARIANCE> 39
 1.468819e+01 3.480971e+01 2.356453e+01 4.152422e+01 4.648191e+01 5.811279e+01 5.318474e+01 5.899240e+01 6.482274e+01 6.411936e+01 8.238976e+01 9.116074e+01 3.340318e+01 1.015855e+00 4.122912e+00 1.696776e+00 3.631104e+00 4.897931e+00 3.172394e+00 3.225262e+00 5.684463e+00 6.152129e+00 3.703402e+00 3.192107e+00 3.248517e+00 2.644618e+00 2.347729e-01 8.252088e-01 3.173086e-01 6.866656e-01 8.611447e-01 5.401968e-01 5.738733e-01 9.606750e-01 1.157881e+00 7.023296e-01 5.821032e-01 5.159788e-01 4.438140e-01
<GCONST> 1.301103e+02
<MIXTURE> 2 5.000000e-01
<MEAN> 39
 2.358245e+00 -7.801247e+00 -9.619551e-01 1.408138e-01 -1.082525e+01 -3.251721e+00 -1.270358e+01 -6.522863e+00 -3.386516e+00 -4.456307e+00 -3.111333e+00 -5.389268e+00 -7.997979e+00 1.044641e-02 9.017459e-01 4.665731e-01 7.138208e-01 2.670492e-01 -1.235964e-01 1.417219e-01 -2.243644e-01 -7.398990e-01 -5.633991e-01 -4.594897e-02 -4.242614e-03 2.646550e-01 -6.103480e-02 4.322653e-02 7.915208e-02 2.960782e-02 -4.556321e-02 -1.300472e-01 1.979318e-01 1.414584e-01 -1.357663e-01 -4.675161e-02 -3.696366e-02 -1.199639e-01 7.845848e-02
<VARIANCE> 39
 1.468819e+01 3.480971e+01 2.356453e+01 4.152422e+01 4.648191e+01 5.811279e+01 5.318474e+01 5.899240e+01 6.482274e+01 6.411936e+01 8.238976e+01 9.116074e+01 3.340318e+01 1.015855e+00 4.122912e+00 1.696776e+00 3.631104e+00 4.897931e+00 3.172394e+00 3.225262e+00 5.684463e+00 6.152129e+00 3.703402e+00 3.192107e+00 3.248517e+00 2.644618e+00 2.347729e-01 8.252088e-01 3.173086e-01 6.866656e-01 8.611447e-01 5.401968e-01 5.738733e-01 9.606750e-01 1.157881e+00 7.023296e-01 5.821032e-01 5.159788e-01 4.438140e-01
<GCONST> 1.301103e+02
<STATE> 6
<NUMMIXES> 2
<MIXTURE> 1 5.000000e-01
<MEAN> 39
 -6.543694e-02 1.170930e+00 4.245344e+00 6.474064e+00 -7.825360e+00 -7.518102e+00 -5.797602e+00 -4.769769e+00 -1.210415e+01 -9.098957e+00 -4.918551e+00 -8.208818e+00 -4.206310e+00 -9.517683e-01 4.825054e-01 3.980052e-03 2.411170e-01 7.825927e-01 3.236969e-01 6.112836e-01 3.083643e-01 1.973098e-01 2.031645e-01 5.977713e-02 3.291244e-01 2.458191e-01 -2.490708e-01 -2.678297e-01 -2.558078e-01 -2.813670e-01 -4.769068e-02 2.399859e-01 -1.584391e-01 1.390489e-01 5.188740e-01 1.945003e-01 -2.185972e-02 1.672140e-01 -1.587681e-02
<VARIANCE> 39
 2.951893e+01 2.991128e+01 2.816439e+01 4.993531e+01 7.706619e+01 5.323633e+01 5.694464e+01 6.640611e+01 8.582932e+01 5.697935e+01 7.972681e+01 5.419061e+01 3.531201e+01 3.624349e+00 2.950085e+00 2.585555e+00 2.965821e+00 3.728179e+00 3.722395e+00 3.735546e+00 4.156200e+00 7.027662e+00 3.563176e+00 3.322368e+00 3.120519e+00 2.214964e+00 4.638638e-01 4.694206e-01 4.076346e-01 4.844277e-01 6.830016e-01 6.228244e-01 6.419648e-01 6.961705e-01 8.872127e-01 6.289882e-01 5.874828e-01 4.887213e-01 4.171135e-01
<GCONST> 1.313184e+02
<MIXTURE> 2 5.000000e-01
<MEAN> 39
 -6.543694e-02 1.170930e+00 4.245344e+00 6.474064e+00 -7.825360e+00 -7.518102e+00 -5.797602e+00 -4.769769e+00 -1.210415e+01 -9.098957e+00 -4.918551e+00 -8.208818e+00 -4.206310e+00 -9.517683e-01 4.825054e-01 3.980052e-03 2.411170e-01 7.825927e-01 3.236969e-01 6.112836e-01 3.083643e-01 1.973098e-01 2.031645e-01 5.977713e-02 3.291244e-01 2.458191e-01 -2.490708e-01 -2.678297e-01 -2.558078e-01 -2.813670e-01 -4.769068e-02 2.399859e-01 -1.584391e-01 1.390489e-01 5.188740e-01 1.945003e-01 -2.185972e-02 1.672140e-01 -1.587681e-02
<VARIANCE> 39
 2.951893e+01 2.991128e+01 2.816439e+01 4.993531e+01 7.706619e+01 5.323633e+01 5.694464e+01 6.640611e+01 8.582932e+01 5.697935e+01 7.972681e+01 5.419061e+01 3.531201e+01 3.624349e+00 2.950085e+00 2.585555e+00 2.965821e+00 3.728179e+00 3.722395e+00 3.735546e+00 4.156200e+00 7.027662e+00 3.563176e+00 3.322368e+00 3.120519e+00 2.214964e+00 4.638638e-01 4.694206e-01 4.076346e-01 4.844277e-01 6.830016e-01 6.228244e-01 6.419648e-01 6.961705e-01 8.872127e-01 6.289882e-01 5.874828e-01 4.887213e-01 4.171135e-01
<GCONST> 1.313184e+02
<TRANSP> 7
 0.000000e+00 1.000000e+00 0.000000e+00 0.000000e+00 0.000000e+00 0.000000e+00 0.000000e+00
 0.000000e+00 8.993080e-01 1.006920e-01 0.000000e+00 0.000000e+00 0.000000e+00 0.000000e+00
 0.000000e+00 0.000000e+00 7.183881e-01 2.816119e-01 0.000000e+00 0.000000e+00 0.000000e+00
 0.000000e+00 0.000000e+00 0.000000e+00 8.429872e-01 1.570128e-01 0.000000e+00 0.000000e+00
 0.000000e+00 0.000000e+00 0.000000e+00 0.000000e+00 9.140117e-01 8.598828e-02 0.000000e+00
 0.000000e+00 0.000000e+00 0.000000e+00 0.000000e+00 0.000000e+00 8.936754e-01 1.063246e-01
 0.000000e+00 0.000000e+00 0.000000e+00 0.000000e+00 0.000000e+00 0.000000e+00 0.000000e+00
<ENDHMM>
~h "hmm_word_8"
<BEGINHMM>
<NUMSTATES> 7
<STATE> 2
<NUMMIXES> 2
<MIXTURE> 1 5.000000e-01
<MEAN> 39
 -7.467820e+00 -7.553060e+00 3.030540e+00 -5.717319e-01 -1.524046e+01 -6.226804e+00 -6.365707e+00 3.046184e+00 -6.882669e-01 -1.678250e+00 -1.988233e-01 -2.942992e+00 -3.217823e+00 9.564682e-01 -1.361438e+00 8.623081e-01 -3.909693e-01 -2.112634e+00 -3.842186e-01 -1.914571e-01 3.303426e-01 -2.572641e-01 -6.805996e-01 -4.620677e-01 -4.676146e-01 -5.165866e-01 -1.740221e-02 1.613778e-01 -7.675120e-03 1.123989e-02 5.745970e-02 8.144572e-02 1.089466e-03 -2.464982e-01 -1.850276e-01 -6.590001e-02 4.352688e-02 3.263382e-02 -2.120174e-02
<VARIANCE> 39
 5.520723e+01 6.101336e+01 4.762224e+01 5.864190e+01 1.046635e+02 6.471163e+01 6.685525e+01 5.301490e+01 7.425870e+01 6.462429e+01 4.631502e+01 6.306755e+01 3.233337e+01 5.292543e+00 4.990870e+00 3.349828e+00 3.847957e+00 7.617077e+00 5.247204e+00 5.179051e+00 5.236164e+00 5.713522e+00 5.013028e+00 3.939611e+00 5.115581e+00 2.993436e+00 8.601856e-01 9.966826e-01 5.214521e-01 5.779606e-01 1.388163e+00 9.290696e-01 8.424901e-01 8.051142e-01 9.590548e-01 9.292935e-01 6.570072e-01 8.130038e-01 5.135149e-01
<GCONST> 1.420374e+02
<MIXTURE> 2 5.000000e-01
<MEAN> 39
 -7.467820e+00 -7.553060e+00 3.030540e+00 -5.717319e-01 -1.524046e+01 -6.226804e+00 -6.365707e+00 3.046184e+00 -6.882669e-01 -1.678250e+00 -1.988233e-01 -2.942992e+00 -3.217823e+00 9.564682e-01 -1.361438e+00 8.623081e-01 -3.909693e-01 -2.112634e+00 -3.842186e-01 -1.914571e-01 3.303426e-01 -2.572641e-01 -6.805996e-01 -4.620677e-01 -4.676146e-01 -5.165866e-01 -1.740221e-02 1.613778e-01 -7.675120e-03 1.123989e-02 5.745970e-02 8.144572e-02 1.089466e-03 -2.464982e-01 -1.850276e-01 -6.590001e-02 4.352688e-02 3.263382e-02 -2.120174e-02
<VARIANCE> 39
 5.520723e+01 6.101336e+01 4.762224e+01 5.864190e+01 1.046635e+02 6.471163e+01 6.685525e+01 5.301490e+01 7.425870e+01 6.462429e+01 4.631502e+01 6.306755e+01 3.233337e+01 5.292543e+00 4.990870e+00 3.349828e+00 3.847957e+00 7.617077e+00 5.247204e+00 5.179051e+00 5.236164e+00 5.713522e+00 5.013028e+00 3.939611e+00 5.115581e+00 2.993436e+00 8.601856e-01 9.966826e-01 5.214521e-01 5.779606e-01 1.388163e+00 9.290696e-01 8.424901e-01 8.051142e-01 9.590548e-01 9.292935e-01 6.570072e-01 8.130038e-01 5.135149e-01
<GCONST> 1.420374e+02
<STATE> 3
<NUMMIXES> 2
<MIXTURE> 1 5.000000e-01
<MEAN> 39
 -3.297844e+00 -1.004243e+01 1.126051e+01 -8.288943e-01 -2.683666e+01 -7.333306e+00 -9.953775e+00 -2.228379e+00 -6.175858e+00 -5.867693e+00 -9.679627e-01 -4.547627e+00 -5.190569e+00 -2.249438e-01 5.922360e-01 9.790498e-01 2.821956e-01 -3.093649e-01 1.005776e-01 -3.610618e-01 -9.003249e-01 -7.969053e-01 -1.078932e-01 1.558477e-01 6.558031e-02 2.259164e-01 -2.691767e-02 1.035764e-01 2.692258e-03 8.149979e-02 1.777089e-01 4.067919e-02 -1.781992e-02 -2.498294e-03 -4.450578e-02 7.769635e-03 3.132751e-03 -1.552811e-02 4.553607e-02
<VARIANCE> 39
 1.219645e+01 3.645788e+01 5.586734e+01 1.056717e+02 4.504598e+01 4.338224e+01 4.808148e+01 7.141734e+01 9.254117e+01 4.616899e+01 5.326426e+01 1.063647e+02 2.973064e+01 2.721022e-01 7.717497e-01 8.861356e-01 7.784328e-01 1.107137e+00 1.116762e+00 1.407011e+00 1.560275e+00 1.429383e+00 1.567312e+00 1.230047e+00 1.178609e+00 1.171536e+00 6.239942e-02 1.316051e-01 1.367993e-01 1.364817e-01 1.826066e-01 1.914379e-01 2.119780e-01 2.495578e-01 2.235912e-01 2.118963e-01 2.038244e-01 1.974549e-01 1.777285e-01
<GCONST> 9.990839e+01
<MIXTURE> 2 5.000000e-01
<MEAN> 39
 -3.297844e+00 -1.004243e+01 1.126051e+01 -8.288943e-01 -2.683666e+01 -7.333306e+00 -9.953775e+00 -2.228379e+00 -6.175858e+00 -5.867693e+00 -9.679627e-01 -4.547627e+00 -5.190569e+00 -2.249438e-01 5.922360e-01 9.790498e-01 2.821956e-01 -3.093649e-01 1.005776e-01 -3.610618e-01 -9.003249e-01 -7.969053e-01 -1.078932e-01 1.558477e-01 6.558031e-02 2.259164e-01 -2.691767e-02 1.035764e-01 2.692258e-03 8.149979e-02 1.777089e-01 4.067919e-02 -1.781992e-02 -2.498294e-03 -4.450578e-02 7.769635e-03 3.132751e-03 -1.552811e-02 4.553607e-02
<VARIANCE> 39
 1.219645e+01 3.645788e+01 5.586734e+01 1.056717e+02 4.504598e+01 4.338224e+01 4.808148e+01 7.141734e+01 9.254117e+01 4.616899e+01 5.326426e+01 1.063647e+02 2.973064e+01 2.721022e-01 7.717497e-01 8.861356e-01 7.784328e-01 1.107137e+00 1.116762e+00 1.407011e+00 1.560275e+00 1.429383e+00 1.567312e+00 1.230047e+00 1.178609e+00 1.171536e+00 6.239942e-02 1.316051e-01 1.367993e-01 1.364817e-01 1.826066e-01 1.914379e-01 2.119780e-01 2.495578e-01 2.235912e-01 2.118963e-01 2.038244e-01 1.974549e-01 1.777285e-01
<GCONST> 9.990839e+01
<STATE> 4
<NUMMIXES> 2
<MIXTURE> 1 5.000000e-01
<MEAN> 39
 -5.350099e+00 -3.323638e+00 1.877034e+01 3.483310e+00 -2.547494e+01 -6.245306e+00 -1.314035e+01 -8.740348e+00 -1.405093e+01 -6.469616e+00 -8.759661e-03 -4.967475e+00 -2.364436e+00 -2.197230e-01 1.728917e+00 -9.327756e-01 1.399917e+00 2.661714e+00 -4.950104e-01 7.112789e-01 2.867342e-01 7.896979e-02 -1.377824e-01 -3.419870e-01 3.078511e-01 1.267296e-01 -2.118144e-01 3.082935e-01 -9.327533e-01 -1.320774e-01 1.012120e+00 -2.654868e-02 3.744965e-01 3.089318e-01 6.009777e-01 1.784833e-01 -1.659530e-01 1.598676e-01 -4.962993e-02
<VARIANCE> 39
 1.302217e+01 3.538879e+01 3.178983e+01 1.026518e+02 4.579113e+01 4.787632e+01 5.109187e+01 5.883365e+01 6.471487e+01 6.558829e+01 5.350754e+01 7.476690e+01 4.025602e+01 1.224407e+00 2.838741e+00 4.727359e+00 2.900675e+00 6.242362e+00 3.177271e+00 3.358788e+00 3.619224e+00 4.115432e+00 3.172782e+00 3.522089e+00 3.579274e+00 2.517616e+00 2.830455e-01 4.648161e-01 4.702834e-01 6.466498e-01 6.419433e-01 7.000905e-01 5.708101e-01 6.308448e-01 6.315346e-01 6.971418e-01 5.932062e-01 5.202892e-01 4.610559e-01
<GCONST> 1.295108e+02
<MIXTURE> 2 5.000000e-01
<MEAN> 39
 -5.350099e+00 -3.323638e+00 1.877034e+01 3.483310e+00 -2.547494e+01 -6.245306e+00 -1.314035e+01 -8.740348e+00 -1.405093e+01 -6.469616e+00 -8.759661e-03 -4.967475e+00 -2.364436e+00 -2.197230e-01 1.728917e+00 -9.327756e-01 1.399917e+00 2.661714e+00 -4.950104e-01 7.112789e-01 2.867342e-01 7.896979e-02 -1.377824e-01 -3.419870e-01 3.078511e-01 1.267296e-01 -2.118144e-01 3.082935e-01 -9.327533e-01 -1.320774e-01 1.012120e+00 -2.654868e-02 3.744965e-01 3.089318e-01 6.009777e-01 1.784833e-01 -1.659530e-01 1.598676e-01 -4.962993e-02
<VARIANCE> 39
 1.302217e+01 3.538879e+01 3.178983e+01 1.026518e+02 4.579113e+01 4.787632e+01 5.109187e+01 5.883365e+01 6.471487e+01 6.558829e+01 5.350754e+01 7.476690e+01 4.025602e+01 1.224407e+00 2.838741e+00 4.727359e+00 2.900675e+00 6.242362e+00 3.177271e+00 3.358788e+00 3.619224e+00 4.115432e+00 3.172782e+00 3.522089e+00 3.579274e+00 2.517616e+00 2.830455e-01 4.648161e-01 4.702834e-01 6.466498e-01 6.419433e-01 7.000905e-01 5.708101e-01 6.308448e-01 6.315346e-01 6.971418e-01 5.932062e-01 5.202892e-01 4.610559e-01
<GCONST> 1.295108e+02
<STATE> 5
<NUMMIXES> 2
<MIXTURE> 1 5.000000e-01
<MEAN> 39
 -8.434456e+00 6.109856e+00 7.422929e+00 7.428422e+00 -5.713335e+00 -6.651422e+00 -7.871565e+00 -5.774967e+00 -8.068861e+00 -6.461636e+00 -3.639922e+00 -2.729283e+00 -3.078423e+00 -1.992504e+00 5.028986e-01 -3.234787e+00 -1.076941e+00 3.594223e+00 1.547752e+00 1.463598e+00 1.111931e+00 2.023696e+00 1.336728e+00 6.663457e-02 6.187977e-01 3.643310e-01 -2.089921e-01 -1.032787e+00 2.797852e-01 -4.807746e-01 -1.141831e+00 3.120137e-01 2.588728e-02 2.151613e-01 8.972006e-02 2.891324e-01 4.865158e-01 1.153868e-01 1.335033e-01
<VARIANCE> 39
 2.867618e+01 3.467236e+01 4.183047e+01 4.115390e+01 5.108165e+01 4.192952e+01 3.182647e+01 3.300158e+01 3.417842e+01 3.388935e+01 3.174546e+01 3.164806e+01 2.745501e+01 2.989288e+00 8.033390e+00 4.617739e+00 4.758855e+00 8.492388e+00 4.551297e+00 4.049130e+00 4.960565e+00 5.633250e+00 5.350228e+00 4.979665e+00 5.373523e+00 3.164104e+00 6.047512e-01 1.015901e+00 9.132217e-01 7.238598e-01 1.131071e+00 1.044994e+00 7.535296e-01 7.958071e-01 8.709083e-01 8.440362e-01 7.547903e-01 8.070181e-01 5.563582e-01
<GCONST> 1.360686e+02
<MIXTURE> 2 5.000000e-01
<MEAN> 39
 -8.434456e+00 6.109856e+00 7.422929e+00 7.428422e+00 -5.713335e+00 -6.651422e+00 -7.871565e+00 -5.774967e+00 -8.068861e+00 -6.461636e+00 -3.639922e+00 -2.729283e+00 -3.078423e+00 -1.992504e+00 5.028986e-01 -3.234787e+00 -1.076941e+00 3.594223e+00 1.547752e+00 1.463598e+00 1.111931e+00 2.023696e+00 1.336728e+00 6.663457e-02 6.187977e-01 3.643310e-01 -2.089921e-01 -1.032787e+00 2.797852e-01 -4.807746e-01 -1.141831e+00 3.120137e-01 2.588728e-02 2.151613e-01 8.972006e-02 2.891324e-01 4.865158e-01 1.153868e-01 1.335033e-01
<VARIANCE> 39
 2.867618e+01 3.467236e+01 4.183047e+01 4.115390e+01 5.108165e+01 4.192952e+01 3.182647e+01 3.300158e+01 3.417842e+01 3.388935e+01 3.174546e+01 3.164806e+01 2.745501e+01 2.989288e+00 8.033390e+00 4.617739e+00 4.758855e+00 8.492388e+00 4.551297e+00 4.049130e+00 4.960565e+00 5.633250e+00 5.350228e+00 4.979665e+00 5.373523e+00 3.164104e+00 6.047512e-01 1.015901e+00 9.132217e-01 7.238598e-01 1.131071e+00 1.044994e+00 7.535296e-01 7.958071e-01 8.709083e-01 8.440362e-01 7.547903e-01 8.070181e-01 5.563582e-01
<GCONST> 1.360686e+02
<STATE> 6
<NUMMIXES> 2
<MIXTURE> 1 5.000000e-01
<MEAN> 39
 -1.572179e+01 -1.342106e+00 5.153795e-01 1.245199e+00 -3.106864e+00 -2.401313e+00 -2.189331e+00 1.450301e+00 -9.122472e-01 -7.482734e-01 5.493540e-01 8.409349e-01 -2.116327e-01 -2.206290e-01 -5.213581e-01 -3.998681e-01 -2.490934e-01 -1.232756e-01 2.551363e-02 2.543976e-01 4.170857e-01 2.756059e-01 7.858868e-02 8.411884e-02 6.976523e-02 7.152663e-02 2.055344e-01 1.219450e-01 2.260221e-01 1.160155e-01 -1.931972e-01 -1.412948e-01 -1.588405e-01 -1.648167e-01 -2.223125e-01 -1.823965e-01 -1.097911e-01 -1.354605e-01 -7.997771e-02
<VARIANCE> 39
 3.010447e+01 3.708298e+01 2.570348e+01 3.230408e+01 2.786789e+01 2.942507e+01 2.838933e+01 3.020635e+01 3.149673e+01 2.733929e+01 2.250746e+01 1.918062e+01 1.529408e+01 3.542522e+00 3.661083e+00 2.858534e+00 3.333199e+00 2.893602e+00 3.182430e+00 2.947320e+00 2.953611e+00 3.422692e+00 3.096073e+00 2.651725e+00 2.274731e+00 1.749801e+00 6.034327e-01 6.747798e-01 6.544336e-01 6.379931e-01 7.435972e-01 6.765791e-01 5.964090e-01 5.792731e-01 7.453310e-01 6.497104e-01 4.924137e-01 4.719730e-01 3.466413e-01
<GCONST> 1.215862e+02
<MIXTURE> 2 5.000000e-01
<MEAN> 39
 -1.572179e+01 -1.342106e+00 5.153795e-01 1.245199e+00 -3.106864e+00 -2.401313e+00 -2.189331e+00 1.450301e+00 -9.122472e-01 -7.482734e-01 5.493540e-01 8.409349e-01 -2.116327e-01 -2.206290e-01 -5.213581e-01 -3.998681e-01 -2.490934e-01 -1.232756e-01 2.551363e-02 2.543976e-01 4.170857e-01 2.756059e-01 7.858868e-02 8.411884e-02 6.976523e-02 7.152663e-02 2.055344e-01 1.219450e-01 2.260221e-01 1.160155e-01 -1.931972e-01 -1.412948e-01 -1.588405e-01 -1.648167e-01 -2.223125e-01 -1.823965e-01 -1.097911e-01 -1.354605e-01 -7.997771e-02
<VARIANCE> 39
 3.010447e+01 3.708298e+01 2.570348e+01 3.230408e+01 2.786789e+01 2.942507e+01 2.838933e+01 3.020635e+01 3.149673e+01 2.733929e+01 2.250746e+01 1.918062e+01 1.529408e+01 3.542522e+00 3.661083e+00 2.858534e+00 3.333199e+00 2.893602e+00 3.182430e+00 2.947320e+00 2.953611e+00 3.422692e+00 3.096073e+00 2.651725e+00 2.274731e+00 1.749801e+00 6.034327e-01 6.747798e-01 6.544336e-01 6.379931e-01 7.435972e-01 6.765791e-01 5.964090e-01 5.792731e-01 7.453310e-01 6.497104e-01 4.924137e-01 4.719730e-01 3.466413e-01
<GCONST> 1.215862e+02
<TRANSP> 7
 0.000000e+00 1.000000e+00 0.000000e+00 0.000000e+00 0.000000e+00 0.000000e+00 0.000000e+00
 0.000000e+00 8.454560e-01 1.545440e-01 0.000000e+00 0.000000e+00 0.000000e+00 0.000000e+00
 0.000000e+00 0.000000e+00 9.137058e-01 8.629417e-02 0.000000e+00 0.000000e+00 0.000000e+00
 0.000000e+00 0.000000e+00 0.000000e+00 7.628468e-01 2.371532e-01 0.000000e+00 0.000000e+00
 0.000000e+00 0.000000e+00 0.000000e+00 0.000000e+00 6.978078e-01 3.021921e-01 0.000000e+00
 0.000000e+00 0.000000e+00 0.000000e+00 0.000000e+00 0.000000e+00 8.784123e-01 1.215877e-01
 0.000000e+00 0.000000e+00 0.000000e+00 0.000000e+00 0.000000e+00 0.000000e+00 0.000000e+00
<ENDHMM>
~h "hmm_word_9"
<BEGINHMM>
<NUMSTATES> 7
<STATE> 2
<NUMMIXES> 2
<MIXTURE> 1 5.000000e-01
<MEAN> 39
 1.906263e+00 -5.205326e+00 1.383295e+00 2.987838e+00 -1.223629e+01 -4.609521e+00 -9.606894e+00 -5.115283e+00 -8.170185e+00 -8.130867e+00 -5.937401e+00 -8.627463e+00 -5.641102e+00 2.879178e-01 -1.761930e+00 -1.109510e+00 -8.982991e-01 -2.234198e-01 1.233392e+00 -6.676782e-01 -8.070908e-02 1.248615e+00 9.482370e-02 -8.419708e-01 -1.226432e-01 -1.942733e-01 -1.842241e-01 -7.250813e-02 -1.678467e-01 -7.388432e-02 2.190626e-01 1.927837e-01 1.104259e-01 -4.913202e-02 1.209132e-01 1.288478e-01 8.314695e-03 1.155984e-01 2.527497e-02
<VARIANCE> 39
 1.577309e+01 8.063568e+01 4.733839e+01 6.136317e+01 5.505553e+01 8.842657e+01 7.351199e+01 6.788074e+01 1.294712e+02 7.317671e+01 7.662874e+01 5.471172e+01 3.571090e+01 3.051754e+00 3.294842e+00 3.379148e+00 2.997973e+00 4.876691e+00 6.655205e+00 5.120445e+00 5.935145e+00 9.450712e+00 4.690841e+00 3.494519e+00 3.286937e+00 2.534633e+00 4.137634e-01 6.817029e-01 5.978540e-01 5.367001e-01 6.718769e-01 1.093300e+00 9.255757e-01 1.046903e+00 1.742030e+00 7.398501e-01 6.401449e-01 5.311387e-01 4.302321e-01
<GCONST> 1.391479e+02
<MIXTURE> 2 5.000000e-01
<MEAN> 39
 1.906263e+00 -5.205326e+00 1.383295e+00 2.987838e+00 -1.223629e+01 -4.609521e+00 -9.606894e+00 -5.115283e+00 -8.170185e+00 -8.130867e+00 -5.937401e+00 -8.627463e+00 -5.641102e+00 2.879178e-01 -1.761930e+00 -1.109510e+00 -8.982991e-01 -2.234198e-01 1.233392e+00 -6.676782e-01 -8.070908e-02 1.248615e+00 9.482370e-02 -8.419708e-01 -1.226432e-01 -1.942733e-01 -1.842241e-01 -7.250813e-02 -1.678467e-01 -7.388432e-02 2.190626e-01 1.927837e-01 1.104259e-01 -4.913202e-02 1.209132e-01 1.288478e-01 8.314695e-03 1.155984e-01 2.527497e-02
<VARIANCE> 39
 1.577309e+01 8.063568e+01 4.733839e+01 6.136317e+01 5.505553e+01 8.842657e+01 7.351199e+01 6.788074e+01 1.294712e+02 7.317671e+01 7.662874e+01 5.471172e+01 3.571090e+01 3.051754e+00 3.294842e+00 3.379148e+00 2.997973e+00 4.876691e+00 6.655205e+00 5.120445e+00 5.935145e+00 9.450712e+00 4.690841e+00 3.494519e+00 3.286937e+00 2.534633e+00 4.137634e-01 6.817029e-01 5.978540e-01 5.367001e-01 6.718769e-01 1.093300e+00 9.255757e-01 1.046903e+00 1.742030e+00 7.398501e-01 6.401449e-01 5.311387e-01 4.302321e-01
<GCONST> 1.391479e+02
<STATE> 3
<NUMMIXES> 2
<MIXTURE> 1 5.000000e-01
<MEAN> 39
 2.025506e+00 -1.529639e+01 -7.335427e+00 -2.681761e+00 -7.619325e+00 6.280258e+00 -1.047803e+01 -7.737086e+00 1.082173e+00 -5.052090e+00 -1.010546e+01 -6.664776e+00 -7.150799e+00 4.250783e-02 -1.192879e-01 2.098616e-02 1.462047e-01 1.325813e-01 -7.194600e-02 -3.532119e-03 -7.474914e-02 1.159202e-01 7.816079e-02 -1.430180e-01 5.077646e-02 5.816529e-02 -3.830491e-02 6.674647e-02 1.601039e-01 1.439280e-01 -1.879926e-01 -2.112175e-01 -5.363743e-02 1.872515e-01 1.060103e-02 -1.040030e-01 1.275949e-03 -1.403713e-02 6.058380e-02
<VARIANCE> 39
 1.262428e+01 2.841133e+01 2.615313e+01 3.947248e+01 3.762277e+01 7.437596e+01 9.517017e+01 6.956236e+01 6.806441e+01 1.012035e+02 6.116736e+01 5.315468e+01 3.862575e+01 1.503665e-01 3.057161e-01 4.212520e-01 8.394594e-01 8.276457e-01 1.147848e+00 8.972568e-01 1.218573e+00 9.579419e-01 8.076401e-01 7.718329e-01 7.638183e-01 7.116947e-01 2.426533e-02 5.310552e-02 6.994726e-02 9.694493e-02 1.261989e-01 1.315119e-01 1.521186e-01 1.664890e-01 1.691775e-01 1.454554e-01 1.377277e-01 1.276526e-01 1.109031e-01
<GCONST> 8.723874e+01
<MIXTURE> 2 5.000000e-01
<MEAN> 39
 2.025506e+00 -1.529639e+01 -7.335427e+00 -2.681761e+00 -7.619325e+00 6.280258e+00 -1.047803e+01 -7.737086e+00 1.082173e+00 -5.052090e+00 -1.010546e+01 -6.664776e+00 -7.150799e+00 4.250783e-02 -1.192879e-01 2.098616e-02 1.462047e-01 1.325813e-01 -7.194600e-02 -3.532119e-03 -7.474914e-02 1.159202e-01 7.816079e-02 -1.430180e-01 5.077646e-02 5.816529e-02 -3.830491e-02 6.674647e-02 1.601039e-01 1.439280e-01 -1.879926e-01 -2.112175e-01 -5.363743e-02 1.872515e-01 1.060103e-02 -1.040030e-01 1.275949e-03 -1.403713e-02 6.058380e-02
<VARIANCE> 39
 1.262428e+01 2.841133e+01 2.615313e+01 3.947248e+01 3.762277e+01 7.437596e+01 9.517017e+01 6.956236e+01 6.806441e+01 1.012035e+02 6.116736e+01 5.315468e+01 3.862575e+01 1.503665e-01 3.057161e-01 4.212520e-01 8.394594e-01 8.276457e-01 1.147848e+00 8.972568e-01 1.218573e+00 9.579419e-01 8.076401e-01 7.718329e-01 7.638183e-01 7.116947e-01 2.426533e-02 5.310552e-02 6.994726e-02 9.694493e-02 1.261989e-01 1.315119e-01 1.521186e-01 1.664890e-01 1.691775e-01 1.454554e-01 1.377277e-01 1.276526e-01 1.109031e-01
<GCONST> 8.723874e+01
<STATE> 4
<NUMMIXES> 2
